#ifndef N_MNIST_WEIGHTS_H
#define N_MNIST_WEIGHTS_H
weight_t weights_0[128][784] = {{-0.00026738643646240234,0.019158702343702316,-0.011533462442457676,0.024800727143883705,0.10082940012216568,0.18532323837280273,0.21368636190891266,0.22666829824447632,0.17990635335445404,0.04694386199116707,-0.11624274402856827,-0.22667190432548523,-0.2587156593799591,0.0017841793596744537,-0.16169297695159912,0.0026243345346301794,0.06262151896953583,0.13678325712680817,0.03924449905753136,-0.1879754364490509,0.002558839740231633,-0.05521997809410095,0.007758015766739845,0.10691449046134949,-0.05381491780281067,0.2636963725090027,-0.09880989789962769,-0.022014195099473,0.0314171127974987,-0.009041616693139076,0.10602600872516632,0.2408076971769333,0.14335894584655762,0.25830063223838806,0.12085425853729248,0.22408124804496765,0.13893269002437592,0.2503373622894287,0.03429809957742691,-0.04625936225056648,0.005854853428900242,0.13555559515953064,0.17454952001571655,0.13192550837993622,0.015096510760486126,-0.014927500858902931,-0.07714028656482697,-0.16722045838832855,-0.2520139217376709,-0.28278684616088867,-0.06780611723661423,-0.03400149196386337,-0.11337000876665115,-0.1592671126127243,0.04457943141460419,-0.1512756496667862,0.16600508987903595,0.06983134150505066,0.13126632571220398,0.2917253375053406,0.2770158648490906,0.15025624632835388,0.08177866041660309,0.2508319914340973,0.25059300661087036,0.21995632350444794,0.363329142332077,0.2506183385848999,0.2544766664505005,0.1364210695028305,0.12410484999418259,0.01634453423321247,-0.23037807643413544,-0.23881448805332184,-0.28823521733283997,0.00838548969477415,-0.34983158111572266,-0.37857845425605774,-0.16427765786647797,-0.2235412448644638,-0.27601122856140137,-0.09736725687980652,0.06972970068454742,0.004242537077516317,0.02928747609257698,0.1527993530035019,0.04114208742976189,0.018232177942991257,0.12140848487615585,0.050207071006298065,0.13651663064956665,0.11948064714670181,0.28150391578674316,0.3244166672229767,0.0444398932158947,-0.04941611364483833,-0.14232586324214935,-0.20676177740097046,-0.3142009973526001,-0.5294736623764038,-0.2879742980003357,-0.25463780760765076,-0.2083204686641693,-0.19782611727714539,-0.011433657258749008,0.0380004346370697,0.03958762437105179,0.08032261580228806,0.11551602184772491,-0.10991349816322327,-0.17875242233276367,-0.015250114724040031,0.014476234093308449,0.17012706398963928,-0.08118140697479248,-0.04017966613173485,-0.06048385053873062,0.0404663123190403,-0.046865999698638916,0.02353893220424652,-0.03727758303284645,-0.12377053499221802,-0.24113503098487854,-0.19960159063339233,-0.1740688979625702,-0.1335102617740631,0.049283530563116074,0.06072432920336723,0.10381899774074554,0.166216641664505,0.010843846946954727,0.031409356743097305,0.004308826290071011,-0.04212711751461029,-0.034470513463020325,-0.049308136105537415,-0.1561054289340973,-0.23002158105373383,-0.19721022248268127,-0.29231005907058716,0.1655208319425583,-0.009553693234920502,-0.08297494053840637,0.020226050168275833,-0.03471283242106438,-0.09037503600120544,-0.07591601461172104,-0.20773844420909882,-0.26576948165893555,-0.25499075651168823,-0.24086782336235046,-0.14591559767723083,-0.004384416155517101,-0.006764620542526245,0.10418827086687088,0.0845148041844368,0.05403804033994675,-0.010247609578073025,-0.013551517389714718,-0.0989997386932373,-0.18197304010391235,-0.1493440866470337,-0.17426860332489014,-0.23059438169002533,-0.1708628386259079,-0.18297192454338074,-0.3026563823223114,-0.1513161063194275,0.06630264222621918,0.005138962063938379,-0.008318704552948475,0.07966244965791702,-0.03104410506784916,0.03857798874378204,-0.15552061796188354,-0.07598964124917984,-0.12251590937376022,-0.1421349048614502,-0.006347198039293289,-0.05260264500975609,0.07440710067749023,0.03107410855591297,-0.005763232707977295,-0.07661666721105576,0.03929298371076584,0.015818875283002853,0.05470157787203789,0.011179553344845772,-0.03670811653137207,-0.038496699184179306,-0.012238696217536926,-0.04690235108137131,-0.10122819244861603,-0.07092729955911636,-0.16562619805335999,-0.11481957882642746,-0.0032837081234902143,0.052665915340185165,0.0350775346159935,-0.007152056787163019,-0.062425751239061356,-0.14902089536190033,-0.1804037094116211,-0.11359521746635437,-0.0002950851630885154,0.05503688007593155,0.048276711255311966,0.08085523545742035,0.01940602995455265,-0.06435661017894745,0.027390995994210243,0.09497394412755966,0.10458735376596451,0.03770190849900246,0.038329120725393295,0.08761199563741684,0.07868435978889465,0.10226402431726456,0.12379815429449081,0.15075737237930298,0.06314047425985336,-0.20084935426712036,-0.04353111982345581,0.05248354747891426,-0.02791409194469452,0.04417785629630089,0.0012729756999760866,-0.05029359087347984,-0.2210635244846344,-0.022738970816135406,-0.09818625450134277,0.06677445769309998,0.0485851988196373,0.03485507890582085,0.09992755949497223,-0.012432697229087353,0.024956170469522476,0.07763407379388809,-0.0004760197189170867,-0.00456795422360301,0.020454086363315582,0.003919989801943302,-0.012144062668085098,0.038047224283218384,0.05856495723128319,0.06512037664651871,0.15861521661281586,0.10066832602024078,0.011927565559744835,-0.07984565198421478,-0.10184480249881744,-0.03541949391365051,-0.0531671904027462,0.07199738174676895,-0.10336282104253769,-0.06407638639211655,-0.19908232986927032,-0.005726948846131563,-0.06545338779687881,-0.004000615328550339,-0.002437880728393793,-0.012530943378806114,0.03070775792002678,0.00811694748699665,0.07111769169569016,0.05021112412214279,0.012376566417515278,0.03632029518485069,0.017199790105223656,-0.04504930600523949,0.03847118467092514,0.2059956043958664,0.11970947682857513,0.1612938642501831,0.17061616480350494,0.29649749398231506,0.2858961522579193,-0.023415174335241318,-0.1344389021396637,0.30537149310112,-0.0857275053858757,-0.08644180744886398,-0.10242444276809692,-0.009417128749191761,-0.059242941439151764,0.0411863848567009,0.0021951596718281507,0.041491132229566574,0.028979072347283363,0.009026465937495232,-0.03267764672636986,0.0012470051879063249,0.002771398052573204,-0.07464998960494995,-0.007971497252583504,0.03553401306271553,-0.014179660007357597,-0.08175699412822723,0.04196472465991974,0.1347150355577469,0.10414047539234161,0.18633565306663513,0.1273076981306076,0.03967270627617836,0.14612166583538055,-0.006026185117661953,-0.013427622616291046,0.10617097467184067,-0.18071337044239044,-0.08250167220830917,-0.011462562717497349,0.0492032989859581,-0.06239623576402664,-0.016547009348869324,-0.03142918646335602,0.011317446827888489,-0.021387819200754166,0.01170649565756321,-0.03344223275780678,0.0007259774720296264,-0.03441780060529709,0.025540221482515335,-0.08169382810592651,-0.1386694461107254,0.011686720885336399,-0.0428282655775547,-0.008557387627661228,-0.018690066412091255,0.09103109687566757,0.09561777114868164,0.008902120403945446,0.08551119267940521,0.04009494185447693,-0.18411511182785034,-0.05368960648775101,-0.1310657411813736,-0.19217747449874878,0.043729450553655624,0.11631248146295547,-0.03432733938097954,0.04125353321433067,-0.11298266053199768,-0.010075020603835583,0.018814070150256157,0.015632130205631256,0.022409971803426743,-0.050574250519275665,0.06056393310427666,-0.013015289790928364,0.08796290308237076,-0.15344150364398956,0.01688111200928688,-0.0037321324925869703,-0.06520102173089981,-0.09600432962179184,-0.10161566734313965,-0.157123401761055,-0.1677815467119217,-0.06829357892274857,-0.05928509682416916,-0.14640790224075317,-0.3969119191169739,-0.45805779099464417,-0.25538554787635803,-0.1910175234079361,-0.11736518144607544,0.05878922715783119,0.004503855016082525,-0.02293659746646881,-0.032892562448978424,-0.0682988166809082,-0.05682877451181412,0.01752517931163311,0.05585583671927452,0.04312679171562195,0.1334771066904068,0.1324150711297989,-0.008151363581418991,0.08659637719392776,-0.03649994730949402,0.022808672860264778,-0.019473839551210403,-0.06279077380895615,-0.17911170423030853,-0.1867799162864685,-0.2486923336982727,-0.24336068332195282,-0.18970879912376404,-0.3187522292137146,-0.4175308644771576,-0.4846401512622833,-0.1430491954088211,-0.18233926594257355,0.1560169905424118,0.023343287408351898,0.010167871601879597,0.09473178535699844,0.05446309968829155,-0.031834330409765244,-0.04707203060388565,0.014376637525856495,0.052608996629714966,0.04770071431994438,0.05622101202607155,0.0676557794213295,0.043517276644706726,0.03642226755619049,0.04007716849446297,-0.07451857626438141,-0.13427112996578217,-0.15546774864196777,-0.14623285830020905,-0.25873956084251404,-0.3003237843513489,-0.31658807396888733,-0.10582742094993591,-0.2938222289085388,-0.5597426891326904,-0.4761793315410614,-0.20187997817993164,-0.022783393040299416,0.01459302194416523,0.07972469925880432,0.04814443737268448,0.10394526273012161,0.038631267845630646,0.026845639571547508,-0.024711837992072105,-0.05281062796711922,0.0967763140797615,0.10971280932426453,0.1143118366599083,0.15775972604751587,0.07497233897447586,0.06409062445163727,0.11901263147592545,0.02901822328567505,-0.04223049432039261,-0.15541423857212067,-0.2533319592475891,-0.21751457452774048,-0.2928459942340851,-0.16636835038661957,-0.3599318563938141,-0.40504491329193115,-0.320206880569458,-0.34465491771698,-0.09414277225732803,0.14505316317081451,0.11666037887334824,0.11320960521697998,0.0868806466460228,0.02989613451063633,0.08190388232469559,0.052855491638183594,-0.033364590257406235,-0.0030420105904340744,0.04265802353620529,0.12049540877342224,0.2094542533159256,0.13460393249988556,0.13757078349590302,0.11501448601484299,0.04334808513522148,0.04940618574619293,0.06185389682650566,-0.03346846625208855,-0.09477301687002182,-0.1615973263978958,-0.23667342960834503,-0.1580234169960022,-0.22913861274719238,-0.20816950500011444,-0.2520054578781128,-0.1315944939851761,-0.16704612970352173,0.20232829451560974,0.04763269051909447,-0.045733992010354996,0.025155046954751015,0.025547511875629425,0.03626766800880432,0.031216001138091087,0.006250834092497826,-0.031038343906402588,0.04031229019165039,0.04080614447593689,0.07993756234645844,0.0412440225481987,-0.028148295357823372,0.06335817277431488,0.0357951857149601,0.06468270719051361,0.10765044391155243,0.11879979074001312,0.08664952218532562,-0.09984336048364639,-0.18274755775928497,-0.051802802830934525,-0.2685306966304779,-0.17178098857402802,-0.2320978045463562,-0.14752990007400513,-0.08158551901578903,0.08832774311304092,-0.015714481472969055,0.04757605493068695,0.0113434549421072,0.030877357348799706,0.03713098540902138,-0.008700140751898289,0.015084521844983101,-0.02555082179605961,-0.07210130989551544,-0.04123461991548538,-0.042754560708999634,0.002844264032319188,-0.007244863081723452,0.1165207177400589,0.013725141994655132,0.05989820882678032,0.07347872853279114,0.11969850957393646,0.1267937421798706,0.023565443232655525,-0.018137846142053604,-0.04797650873661041,-0.07217651605606079,-0.028511855751276016,-0.07932353764772415,-0.09997127950191498,0.047351084649562836,0.17237666249275208,-0.06387975811958313,-0.08070068061351776,0.07647169381380081,0.03216824680566788,-0.017998425289988518,-0.005153769161552191,0.021590711548924446,-0.011700554750859737,-0.07367212325334549,-0.1459018588066101,-0.11242153495550156,-0.005726910661906004,-0.05627540871500969,0.07721017301082611,0.017292050644755363,-0.045384831726551056,0.06585732847452164,0.033634115010499954,0.11506560444831848,0.07262029498815536,0.005295298993587494,-0.13614203035831451,-0.06517582386732101,0.1408330202102661,0.043522294610738754,-0.020293328911066055,0.09678668528795242,0.2980347275733948,-0.00501651968806982,-0.07513750344514847,0.0424019880592823,-0.05042510852217674,0.1196623295545578,0.06807229667901993,0.02967056632041931,0.04569822549819946,0.01514827087521553,-0.0935293510556221,-0.16088616847991943,-0.011425895616412163,-0.0029223321471363306,-0.010725213214755058,0.004914822522550821,-0.01886422373354435,0.03490931913256645,0.18679901957511902,0.13258051872253418,0.12337753176689148,0.02781900390982628,-0.0583055280148983,-0.07760979980230331,0.03373679518699646,-0.02602389268577099,0.06746222823858261,0.04238104447722435,0.30035385489463806,0.0811893418431282,0.04887523502111435,0.03754124045372009,0.06872055679559708,0.0019184296252205968,0.08937692642211914,0.014275457710027695,0.020067939534783363,0.03729906678199768,0.017526140436530113,-0.025970734655857086,-0.11651433259248734,0.006219930946826935,-0.01564348302781582,-0.044737741351127625,-0.05934103578329086,-0.036963578313589096,0.0967407301068306,0.13281165063381195,0.08575602620840073,0.10834650695323944,0.006310430821031332,-0.09481041878461838,-0.08658843487501144,-0.11358009278774261,0.11048334836959839,0.3240167200565338,0.11320031434297562,0.04002266749739647,0.050604112446308136,-0.1426612287759781,-0.06483004987239838,-0.005816770251840353,-0.10661012679338455,-0.15423032641410828,0.005716556217521429,0.013051759451627731,0.06971213221549988,0.03158499300479889,0.01153684314340353,-0.01796596497297287,-0.0246892012655735,-0.13040687143802643,-0.1361241638660431,-0.016212591901421547,-0.022239526733756065,0.18924245238304138,0.20057356357574463,0.08726291358470917,0.00616764510050416,-0.05979331210255623,0.08469454199075699,0.09365499019622803,0.07612375915050507,0.08859354257583618,0.1895439773797989,0.11041592061519623,-0.05150872841477394,0.07603149116039276,-0.10404142737388611,-0.044807758182287216,-0.09715021401643753,-0.07679532468318939,-0.01343227457255125,-0.011472505517303944,0.004970217123627663,0.01996537297964096,0.10737908631563187,0.07754159718751907,-0.0558067187666893,-0.0730782225728035,-0.03900689259171486,-0.032831206917762756,-0.05876574665307999,0.14227598905563354,0.3048385977745056,0.22584864497184753,0.10401050746440887,0.14157259464263916,0.11205881088972092,0.09800740331411362,0.16945894062519073,0.2855801582336426,0.06638433784246445,0.07677625119686127,-0.22531306743621826,-0.03285987675189972,0.07253400981426239,0.012524290941655636,0.07896386831998825,0.02479315549135208,-0.022051850333809853,0.057088322937488556,-0.0263519287109375,0.04304331913590431,0.030079394578933716,0.014110122807323933,-0.020220279693603516,0.04986390843987465,0.02640375867486,-0.021370623260736465,-0.10294487327337265,-0.011739841662347317,0.26512208580970764,0.11999563127756119,-0.04839266836643219,0.08042070269584656,0.2190326601266861,0.1310301572084427,0.09054097533226013,0.0673687681555748,0.036823928356170654,-0.06282597035169601,-0.11012642830610275,-0.04054262116551399,0.012945502996444702,0.10279082506895065,0.11984482407569885,0.07705377787351608,0.09066696465015411,0.03443377837538719,0.01594618335366249,-0.06300210952758789,-0.07243183255195618,0.018428010866045952,0.05967633053660393,0.01504081953316927,0.046046312898397446,-0.059300072491168976,0.015098154544830322,0.010753978043794632,0.1302463561296463,0.039988115429878235,0.12646731734275818,0.11603979021310806,0.11840307712554932,-0.03742048144340515,0.08400613814592361,0.02777974121272564,0.156794935464859,-0.009222730994224548,0.014456822536885738,-0.0072165923193097115,-0.030387090519070625,-0.007626386824995279,-0.07022713869810104,0.041751958429813385,-0.022396933287382126,-0.03888388350605965,-0.051347918808460236,-0.06564529985189438,-0.0849091112613678,-0.08306180685758591,-0.03982716053724289,-0.05094759538769722,-0.020205464214086533,0.005410878919064999,0.10607989132404327,0.0689687728881836,0.1993357390165329,0.08431467413902283,0.31540995836257935,0.19749918580055237,0.19214209914207458,0.18860913813114166,0.19932971894741058,0.008111536502838135,0.16809365153312683,-0.05603529140353203,0.13680151104927063,-0.029796965420246124,-0.04937946796417236,-0.08339782059192657,-0.06023759767413139,-0.1300622969865799,-0.1480834037065506,-0.03579622879624367,0.019567245617508888,-3.160945993840869e-07,-0.0256032757461071,0.022749461233615875,-0.09656821936368942,0.036557797342538834,-0.06608989834785461,-0.06645908951759338,0.10980647057294846,0.17959021031856537,0.303718626499176,0.21305400133132935,0.3507521450519562,0.24783533811569214,0.23683923482894897,0.10366225242614746,0.06012312322854996,0.002060331404209137}
,{-0.0197770856320858,-0.014981266111135483,0.028979213908314705,0.030206821858882904,0.16581204533576965,0.21904237568378448,0.08039335906505585,0.07992671430110931,-0.005037244874984026,0.08489593118429184,0.10008952766656876,-0.003233178285881877,0.22142985463142395,0.05516749247908592,0.015529380179941654,-0.03926420211791992,-0.13751833140850067,-0.22375404834747314,-0.3256835639476776,-0.1888321191072464,-0.0810350626707077,-0.027266578748822212,-0.06373985856771469,-0.030368609353899956,0.08694109320640564,-0.0010623433627188206,-0.08028051257133484,0.06309577822685242,0.12387336790561676,-0.024834472686052322,0.10474305599927902,0.2356574386358261,0.22605441510677338,0.11492966115474701,-0.06848213076591492,-0.006402603816241026,-0.08713969588279724,-0.03374497964978218,-0.20764392614364624,-0.07704569399356842,0.07840566337108612,-0.12076622992753983,-0.26067379117012024,-0.31203874945640564,-0.43406248092651367,-0.49026942253112793,-0.4731031060218811,-0.37691792845726013,-0.3092436194419861,-0.29239827394485474,-0.17494137585163116,-0.19408202171325684,-0.10468140989542007,-0.01662459783256054,-0.05204497650265694,-0.04613123834133148,-0.20812153816223145,0.0007888611289672554,0.12425612658262253,0.27026936411857605,0.06034790351986885,-0.023895245045423508,-0.17861996591091156,-0.16015435755252838,-0.1795884072780609,-0.19517923891544342,-0.19636818766593933,-0.13208766281604767,-0.09082252532243729,-0.14257687330245972,-0.07672373205423355,-0.18886776268482208,-0.24247504770755768,-0.28024163842201233,-0.35410815477371216,0.11242131888866425,-0.42750874161720276,-0.22431786358356476,-0.32640859484672546,-0.4129050672054291,-0.19725137948989868,-0.1951657086610794,-0.3719165325164795,-0.1625939905643463,-0.13718579709529877,-0.09601530432701111,0.15244749188423157,-0.012252428568899632,0.07384303957223892,-0.009513637982308865,-0.08495128154754639,-0.09975321590900421,0.042109277099370956,0.047828756272792816,-0.0068304999731481075,-0.0032535947393625975,-0.016893113031983376,-0.10191512852907181,-0.12996356189250946,-0.13104316592216492,-0.1760430783033371,-0.2344507873058319,-0.07683753222227097,-0.07463007420301437,0.018986795097589493,-0.04652749374508858,-0.14980046451091766,-0.37737658619880676,-0.3141717314720154,-0.432796835899353,-0.30591264367103577,-0.1525103598833084,-0.24339750409126282,-0.13080313801765442,-0.11570727825164795,-0.03777812048792839,0.16851261258125305,0.19504043459892273,0.10719316452741623,0.11150376498699188,0.06829766929149628,0.015872115269303322,-0.10958700627088547,-0.11183380335569382,-0.12130215764045715,-0.05295752361416817,0.01782926544547081,0.006498710252344608,-0.06814993172883987,-0.07344464957714081,-0.11143261194229126,-0.08556053787469864,0.027453042566776276,-0.022389205172657967,-0.04583048075437546,-0.16055278480052948,-0.2282368391752243,-0.48165881633758545,-0.37398678064346313,-0.36078333854675293,-0.13044504821300507,0.003314971923828125,-0.03825424984097481,-0.004032046999782324,0.11155462265014648,0.047710370272397995,0.007314282935112715,-0.02658398076891899,-0.21164672076702118,-0.16431130468845367,-0.1307910978794098,-0.15707525610923767,0.0018563393969088793,0.06835601478815079,0.02912122942507267,0.019799882546067238,-0.09861226379871368,-0.10024268925189972,-0.13304422795772552,-0.09555628150701523,-0.025098416954278946,-0.025781411677598953,-0.03769516944885254,-0.16724583506584167,-0.42088764905929565,-0.39301028847694397,-0.5623157024383545,-0.3666141927242279,-0.1302274465560913,-0.09220464527606964,-0.13603661954402924,-0.06326835602521896,-0.2087748795747757,-0.15145350992679596,-0.20541605353355408,-0.1575106680393219,-0.33433520793914795,-0.16654092073440552,0.0037300745025277138,-0.07391024380922318,0.020994776859879494,0.02079956792294979,-0.035214994102716446,-0.05312995985150337,-0.06040722876787186,0.05605270341038704,0.006223949603736401,0.0643484890460968,0.07359293103218079,-0.07551517337560654,-0.068140409886837,-0.08793352544307709,-0.30552712082862854,-0.5544320940971375,-0.3504125475883484,-0.6261680722236633,-0.0631113275885582,-0.17571499943733215,-0.046407923102378845,-0.14112170040607452,-0.1818026751279831,-0.25106003880500793,-0.18871159851551056,-0.298013299703598,-0.14828230440616608,-0.016428889706730843,-0.04453671723604202,0.036500219255685806,-0.007958142086863518,-0.053715139627456665,-0.17150993645191193,-0.080734021961689,-0.09898131340742111,-0.01816585101187229,0.012472166679799557,0.03813241422176361,0.01644740253686905,0.1078973188996315,-0.17107874155044556,-0.036300890147686005,-0.22903591394424438,-0.4434623718261719,-0.7015318870544434,-0.4744117558002472,-0.29421302676200867,-0.3064207136631012,-0.1694808453321457,-0.17346251010894775,-0.25671130418777466,-0.07401292026042938,-0.14037124812602997,-0.021289732307195663,-0.05772346630692482,0.09522886574268341,-0.03071535751223564,-0.04001843184232712,-0.10753988474607468,-0.15045444667339325,-0.161686509847641,-0.1932862102985382,-0.06492864340543747,-0.09816017001867294,-0.040946584194898605,0.0234351996332407,0.05081181228160858,0.030311210080981255,-0.13836926221847534,-0.06464195251464844,-0.2936880886554718,-0.6635661125183105,-0.6660950183868408,-0.5605698227882385,-0.3726012706756592,-0.06888503581285477,-0.12015391886234283,-0.1856921762228012,-0.22477561235427856,-0.009126892313361168,-0.0681019052863121,-0.081297367811203,0.06585685908794403,0.026809992268681526,0.026036305353045464,-0.012960366904735565,-0.10115689039230347,-0.03189112991094589,-0.10561992973089218,-0.019051387906074524,0.03306581825017929,0.009206343442201614,-0.09237422049045563,-0.08235989511013031,-0.05451510101556778,-0.056335024535655975,-0.07410106807947159,-0.05435287952423096,-0.5196627974510193,-0.6286141872406006,-0.6377677917480469,-0.4757556915283203,-0.06624002009630203,-0.01191007625311613,-0.05607335641980171,-0.1147264689207077,0.04937274754047394,-0.001707378658466041,0.005285776220262051,-0.04309508576989174,-0.09379122406244278,-0.024132605642080307,-7.842143531888723e-05,0.0012753678020089865,-0.03671849146485329,0.007236892357468605,0.13709518313407898,0.05632155388593674,0.061930641531944275,-0.04159136116504669,0.09047447144985199,-0.10913410782814026,-0.09333351254463196,-0.09548565000295639,-0.059496745467185974,-0.23268303275108337,-0.4147129952907562,-0.7241157293319702,-0.4493049681186676,-0.3940948247909546,-0.2505060136318207,-0.07767453789710999,-0.07617747783660889,-0.06212964653968811,-0.12427075952291489,-0.08618365228176117,-0.1626463383436203,-0.11689770966768265,-0.027551788836717606,-0.0012256356421858072,0.02157391421496868,-0.04552805423736572,-0.04417411610484123,0.05547564476728439,-0.11435290426015854,-0.0010950667783617973,0.04409964010119438,-0.11726926267147064,-0.013540553860366344,-0.1862049102783203,-0.02470584586262703,-0.009003999643027782,-0.10842857509851456,-0.2396644502878189,-0.40712490677833557,-0.7191067337989807,-0.04565504938364029,-0.39320406317710876,-0.05301143601536751,-0.07155001163482666,-0.03144384175539017,0.039315368980169296,0.029566457495093346,-0.24304646253585815,0.07656611502170563,-0.1491665244102478,-0.10941046476364136,-0.04559686779975891,-0.15395541489124298,-0.05133471637964249,-0.028861619532108307,-0.09131713211536407,-0.10788273811340332,-0.07968895137310028,-0.056504350155591965,-0.09811240434646606,-0.15713824331760406,-0.05323153734207153,-0.010362636297941208,0.055353205651044846,0.002820364199578762,-0.24949568510055542,-0.47811970114707947,-0.46395865082740784,-0.48962369561195374,-0.2187686711549759,-0.02151956781744957,0.06465394049882889,-0.2151831090450287,-0.29842934012413025,-0.37660378217697144,-0.08565215766429901,-0.09457670897245407,-0.0988740548491478,-0.12168386578559875,-0.15156736969947815,-0.20772986114025116,-0.1185767725110054,-0.10508332401514053,-0.23329044878482819,-0.22627826035022736,-0.17461125552654266,-0.22105826437473297,-0.12293998897075653,-0.012240884825587273,-0.07673685997724533,-0.003180508967489004,0.007350664120167494,0.021472033113241196,-0.4622138440608978,-0.7229767441749573,-0.5917448997497559,-0.3770867884159088,-0.13384610414505005,-0.06646987795829773,-0.05376092344522476,-0.03363996371626854,-0.11212672293186188,-0.02599562332034111,-0.0620964914560318,-0.12722943723201752,-0.19404825568199158,-0.28461751341819763,-0.2715027630329132,-0.16384871304035187,-0.22947750985622406,-0.24854232370853424,-0.31590473651885986,-0.1992209255695343,-0.12024039030075073,-0.06320032477378845,0.06353599578142166,0.06359025835990906,-0.08317122608423233,-0.0011133295483887196,-0.0443185530602932,-0.03491134196519852,-0.28884458541870117,-0.5521488785743713,-0.36849766969680786,-0.29130011796951294,-0.15921910107135773,-0.11284250766038895,-0.17662668228149414,-0.03632016479969025,0.020427774637937546,-0.018102610483765602,0.02412416599690914,-0.14560653269290924,-0.11177871376276016,-0.1372803896665573,-0.1907336264848709,-0.13231568038463593,-0.25186243653297424,-0.18646417558193207,-0.0488850362598896,-0.06283902376890182,-0.05094487592577934,0.04405529424548149,0.13959507644176483,-0.0079092588275671,-0.06448391824960709,0.0178561769425869,0.020123019814491272,-0.21039582788944244,-0.25533631443977356,-0.3067546486854553,-0.37322482466697693,-0.17751583456993103,0.05883771553635597,-0.08040361106395721,-0.05185027793049812,0.022775236517190933,-0.06044002249836922,-0.06446509808301926,-0.008208340033888817,-0.00039213759009726346,0.07270725816488266,0.019029363989830017,-0.13688935339450836,-0.04161643981933594,-0.020047111436724663,0.11198563128709793,0.13092243671417236,0.06724562495946884,0.009407774545252323,0.054291728883981705,0.1168997511267662,0.14824676513671875,0.0009568428504280746,0.0027326440904289484,-0.0026951394975185394,-0.09919390082359314,-0.07535893470048904,-0.07665397971868515,-0.17953671514987946,-0.012714340351521969,0.059498172253370285,-0.04837930202484131,0.0218830406665802,-0.23677870631217957,-0.14115647971630096,0.06437287479639053,0.024207739159464836,0.20366264879703522,0.10386975109577179,0.00832296907901764,0.06890014559030533,0.16210220754146576,0.29224681854248047,0.29908493161201477,0.08515506982803345,0.12461873888969421,0.05591072887182236,0.14211420714855194,0.05218534171581268,0.060573432594537735,0.0926581397652626,-0.046304211020469666,0.027839642018079758,-0.16783753037452698,-0.051425281912088394,-0.027293680235743523,-0.04362605884671211,-0.05422958359122276,0.03366600722074509,0.1420592963695526,-0.07945723086595535,-0.10249840468168259,-0.03181542083621025,-0.0007537562632933259,-0.009802599437534809,0.13603456318378448,0.03480193763971329,0.12595102190971375,0.16109541058540344,0.31388458609580994,0.26238399744033813,0.34489908814430237,0.1099795252084732,0.10396227985620499,0.07442295551300049,0.09975547343492508,0.06906156986951828,0.05535847693681717,0.03567545861005783,0.00798449944704771,0.11301179230213165,0.10702609270811081,0.04065679758787155,-0.006755521520972252,-0.09812707453966141,0.07694020867347717,-0.009122718125581741,0.12052826583385468,-0.03081469051539898,-0.10108862817287445,0.14457367360591888,0.017598435282707214,-0.01268120389431715,0.04321984946727753,0.04754681885242462,0.17171524465084076,0.27291029691696167,0.22909246385097504,0.15919482707977295,0.20365214347839355,0.1880885362625122,0.23330643773078918,0.10833164304494858,0.1291264146566391,0.12369393557310104,0.11394528299570084,-0.04821012541651726,0.06545086950063705,0.0029554381035268307,0.0027689191047102213,-0.01567872054874897,0.18825463950634003,0.15828129649162292,-0.003905782476067543,-0.030117707327008247,0.18615493178367615,-0.004002236295491457,-0.0691455751657486,0.06939693540334702,0.10438867658376694,-0.01789718307554722,-0.048530444502830505,0.10077565163373947,0.2299792319536209,0.21235008537769318,0.1227877289056778,0.22919961810112,0.20119398832321167,0.18003670871257782,0.18247853219509125,0.11982019990682602,0.14794601500034332,0.15596358478069305,0.12621501088142395,0.10898666828870773,-0.001334163942374289,0.058790937066078186,0.09824308753013611,0.1523210108280182,0.03396359831094742,0.30340757966041565,-0.04930318519473076,0.038833457976579666,0.21457532048225403,0.028429565951228142,-0.16529841721057892,-0.043417926877737045,0.03251076862215996,0.015601584687829018,-0.012644586153328419,-0.03742368891835213,0.20321494340896606,0.1427363008260727,0.10867777466773987,0.004116827622056007,0.1755973994731903,0.047395724803209305,0.1923571527004242,0.14254094660282135,0.0571281723678112,0.21967975795269012,0.12758566439151764,0.22054940462112427,0.15075120329856873,0.13741351664066315,0.11301721632480621,0.08700622618198395,0.1560617834329605,0.1449170708656311,0.15363962948322296,0.0823165774345398,0.14811426401138306,0.06503932178020477,-0.12490098178386688,-0.171250119805336,-0.08005614578723907,-0.012522198259830475,-0.10423272848129272,0.022685473784804344,0.1219167560338974,-0.03581838682293892,0.01854991912841797,0.02791774272918701,0.08339180797338486,0.07647530734539032,0.003991204779595137,0.11925257742404938,0.1285281479358673,0.06685617566108704,0.1259402483701706,0.18196770548820496,0.08279752731323242,0.05068156495690346,0.06152007728815079,0.08296234905719757,0.10257062315940857,0.2007364183664322,0.11325853317975998,-0.00576135516166687,0.12132230401039124,-0.20804665982723236,-0.1756795346736908,0.018976440653204918,0.04959414526820183,0.031798895448446274,-0.034805819392204285,0.025881998240947723,-0.0026056135538965464,0.05639920011162758,-0.0770835354924202,-0.035791680216789246,-0.031100576743483543,0.03584890812635422,0.10813365131616592,0.07675163447856903,0.15429939329624176,-0.037325672805309296,-0.030858736485242844,0.022153427824378014,0.09707178920507431,0.12475927919149399,0.11416743695735931,0.07597749680280685,0.18864881992340088,0.16499482095241547,0.17321769893169403,-0.11284098774194717,0.2452547699213028,0.036063890904188156,-0.09193902462720871,0.09928121417760849,-0.04999617114663124,-0.07283536344766617,0.007988928817212582,0.07844102382659912,0.010557001456618309,-0.06926969438791275,0.15278437733650208,0.010858693160116673,0.13790170848369598,0.04495459794998169,0.022716045379638672,0.09389159083366394,0.004710848443210125,0.00022248385357670486,-0.028017129749059677,0.0426819883286953,0.08279687166213989,0.03613898158073425,-0.0007874712464399636,0.037136901170015335,0.08832491189241409,0.06958287954330444,0.09410934895277023,-0.2188376933336258,0.1930009424686432,0.054233502596616745,0.1374741643667221,0.04580210894346237,-0.056576795876026154,-0.03503214567899704,-0.019901767373085022,-0.09704243391752243,0.043395064771175385,-0.0011311296839267015,-0.050323907285928726,-0.020823437720537186,0.07238652557134628,0.042721718549728394,0.08705728501081467,0.06971719115972519,-0.09248656034469604,0.014247157610952854,0.14982938766479492,0.15199518203735352,0.06318482011556625,0.14354147017002106,0.14875681698322296,0.17266994714736938,0.32296666502952576,0.11318016797304153,-0.025641590356826782,0.08224054425954819,-0.06291767954826355,0.011692781001329422,0.055134762078523636,0.15479326248168945,0.08864740282297134,-0.0043472349643707275,0.1725529432296753,0.03469210863113403,0.15021272003650665,0.08555471152067184,-0.024057840928435326,0.16306917369365692,0.10239370912313461,0.1372051239013672,0.1200769767165184,0.01837652362883091,0.053937461227178574,0.012426711618900299,0.11376751214265823,0.24963346123695374,0.1937723159790039,0.2746003568172455,0.1932518482208252,0.3847854435443878,0.13338595628738403,0.06594567000865936,-0.0400727204978466,-0.0012707188725471497,0.1333424597978592,-0.21306836605072021,-0.019540179520845413,-0.12462408095598221,-0.11346176266670227,0.03200144320726395,0.0682806745171547,0.03228573873639107,0.0036171346437186003,0.08346626162528992,0.09004741907119751,-0.0027736411429941654,0.012545878998935223,-0.11007083207368851,-0.05714455991983414,0.18881987035274506,0.12448695302009583,0.1119668185710907,0.17828059196472168,0.14076313376426697,-0.005328735802322626,0.25456371903419495,0.3079070448875427,0.15219581127166748,0.10019458830356598,0.08579399436712265,0.08179653435945511,-0.02994578331708908}
,{-0.02014850825071335,0.014898568391799927,0.01725941151380539,0.09663477540016174,0.16198749840259552,0.1911843717098236,0.16451191902160645,0.20730215311050415,0.3670567274093628,0.4339008629322052,0.3325797915458679,0.44960641860961914,0.5623199939727783,0.2099701464176178,0.35720571875572205,0.4105854332447052,0.34807533025741577,0.20578818023204803,0.2878289818763733,0.41716262698173523,0.2831104099750519,0.3074820637702942,0.3163684904575348,0.3118319809436798,0.1808476746082306,0.04829803481698036,0.2067442238330841,0.04615257307887077,0.061683718115091324,-0.0026045814156532288,0.12886551022529602,0.20027565956115723,0.1745532900094986,0.11237890273332596,0.2542697489261627,0.44628170132637024,0.5937287211418152,0.3402428925037384,0.5027438998222351,0.7129204273223877,0.5689998269081116,0.3049917221069336,0.43874117732048035,0.26359638571739197,0.19433647394180298,0.42434370517730713,0.3665604293346405,0.34239673614501953,0.2540667653083801,0.49034199118614197,0.4428102672100067,0.13054320216178894,0.2755327820777893,0.2780756652355194,0.13686880469322205,0.043047841638326645,0.03724054619669914,0.050912387669086456,0.15972982347011566,0.2719235122203827,0.07416568696498871,0.11175847053527832,0.40928298234939575,0.3121849000453949,0.21763180196285248,0.32227927446365356,0.12051708251237869,0.13070403039455414,0.30431246757507324,0.2878672778606415,0.26453134417533875,0.375946968793869,0.25096023082733154,0.24159793555736542,0.4754490554332733,0.18043220043182373,0.7886015772819519,0.41916507482528687,0.5286041498184204,0.4261314570903778,0.5886019468307495,0.4166264533996582,0.1751348376274109,0.0227514635771513,-0.04859531298279762,-0.01225134264677763,0.0629347488284111,0.1565031260251999,0.11243002861738205,0.01961689069867134,0.3253491222858429,0.1967790722846985,0.03937444090843201,-0.08451371639966965,-0.12198246270418167,-0.08227702230215073,-0.045791078358888626,-0.07004714757204056,-0.0163173358887434,0.11937779933214188,0.2521587908267975,0.5369495153427124,0.876763641834259,0.7534544467926025,0.6221100687980652,0.8348303437232971,0.6026208400726318,0.6040661334991455,0.5560981631278992,0.5008494257926941,0.5282021164894104,0.34238359332084656,0.05684668570756912,-0.0693412646651268,0.14343775808811188,0.04899042099714279,0.1621539145708084,0.03421346843242645,0.006098377984017134,-0.09594520926475525,-0.16337153315544128,-0.25740355253219604,-0.25165244936943054,-0.016482681035995483,0.0002202563191531226,0.04951786249876022,0.1444043666124344,0.08398783951997757,-0.06414377689361572,-0.051609933376312256,-0.2002188265323639,-0.20131216943264008,-0.06473962962627411,-0.031166838482022285,0.11184559017419815,0.249352365732193,0.0866762027144432,0.24304665625095367,0.5053817629814148,0.7225547432899475,-0.0128706656396389,-0.012199009768664837,0.04089479148387909,-0.0711916908621788,-0.011920517310500145,-0.09102808684110641,-0.1258559674024582,-0.10861676186323166,-0.13668163120746613,-0.16813398897647858,-0.06285535544157028,-0.09111358970403671,0.08563210815191269,0.08384750783443451,0.053248897194862366,0.03008382022380829,0.04547920078039169,-0.1087782084941864,-0.18186700344085693,-0.11904679238796234,-0.09528686106204987,-0.024031415581703186,-0.04936710000038147,0.058639585971832275,0.04894139990210533,0.09089542180299759,0.009952010586857796,0.34092122316360474,-0.14709338545799255,-0.039431460201740265,-0.13707566261291504,-0.05309096723794937,0.019832609221339226,-0.031440816819667816,-0.08471176773309708,0.01748874969780445,0.0025048323441296816,-0.14096389710903168,-0.168495312333107,-0.029904089868068695,0.048134446144104004,0.11237416416406631,0.08424718677997589,-0.02379510924220085,-0.02629992924630642,-0.22030191123485565,-0.14465458691120148,-0.12931326031684875,-0.07876107096672058,-0.025185897946357727,0.0022072663996368647,-0.055529579520225525,-0.0016321147559210658,-0.015988776460289955,-0.0013768095523118973,0.0897407978773117,-0.0776553675532341,-0.025030458346009254,-0.03295990452170372,-0.07543202489614487,-0.033729586750268936,-0.09187808632850647,-0.11661557853221893,0.08377638459205627,-0.07492852210998535,-0.12740926444530487,-0.12226151674985886,-0.022774631157517433,0.14940674602985382,0.10968508571386337,0.07005668431520462,0.01833469234406948,-0.04119151458144188,-0.1720660924911499,-0.11483079195022583,-0.06722154468297958,0.0538383387029171,-0.05943209305405617,0.03262040764093399,0.04635212942957878,0.13265424966812134,-0.03664751723408699,-0.09755199402570724,0.19310368597507477,-0.1533440500497818,0.0662965402007103,0.07266684621572495,-0.06882710754871368,-0.19246119260787964,0.08193375170230865,-0.011771648190915585,0.004990519490092993,-0.024555955082178116,-0.0618860200047493,-0.14051295816898346,-0.06809993088245392,0.17304834723472595,0.1045636385679245,0.02453300729393959,-0.05535408854484558,-0.07521124929189682,-0.08240044116973877,-0.05303658917546272,-0.024125156924128532,0.04825860261917114,-0.0015713402535766363,0.10641209781169891,0.1298503875732422,0.020229224115610123,0.04938609525561333,0.10789797455072403,0.17089897394180298,0.0720481351017952,0.18661446869373322,0.023000318557024002,-0.06298428773880005,-0.03399014100432396,-0.040815286338329315,-0.026394512504339218,0.02384454756975174,-0.006911550648510456,-0.12494341284036636,-0.2858104705810547,-0.08238197863101959,0.08890241384506226,0.04629393666982651,0.06121547520160675,-0.003881933633238077,-0.05868460610508919,0.030522635206580162,-0.0217297300696373,0.08654503524303436,0.03322853893041611,0.05729204788804054,-0.05864595249295235,-0.017356038093566895,0.03359376639127731,-0.19650977849960327,-0.093572698533535,0.031958192586898804,-0.21495088934898376,-0.01815957948565483,-0.12324149906635284,-0.048589810729026794,-0.050374485552310944,-0.04354841634631157,-0.08662983030080795,0.036262981593608856,-0.03750312328338623,-0.10917768627405167,-0.247584730386734,-0.08710050582885742,-0.015163827687501907,0.024224672466516495,0.06291531026363373,0.07850655913352966,-0.04141908138990402,0.035473018884658813,0.09957759827375412,0.03051668591797352,0.03993809595704079,0.03759060427546501,-0.10266651958227158,-0.18058429658412933,0.04144957289099693,-0.05657505616545677,-0.10688702017068863,0.07716307789087296,0.0973484143614769,-0.05544648319482803,0.000639024015981704,-0.043533001095056534,-0.07202190160751343,-0.07131339609622955,-0.06116209179162979,0.015165398828685284,0.09458418190479279,-0.08236507326364517,-0.05543903633952141,-0.11925522983074188,0.04811156913638115,0.09957125037908554,0.1204829066991806,0.11627140641212463,0.045634035021066666,-0.10415831953287125,0.06075415387749672,0.017492784187197685,-0.02745765633881092,0.0029968179296702147,0.02019205130636692,-0.001795408665202558,-0.06823620945215225,-0.022150076925754547,0.002526099793612957,0.09248236566781998,-0.11833073943853378,-0.24500733613967896,-0.0417136587202549,-0.027336977422237396,0.13242773711681366,-0.08593986183404922,0.07045158743858337,-0.03862401098012924,0.02738897129893303,-0.04962680861353874,-0.05069918930530548,-0.017651543021202087,0.03755943849682808,0.10718553513288498,0.14860917627811432,0.09266243875026703,0.027173256501555443,-0.05246853828430176,0.0403936505317688,0.012625000439584255,-0.017301484942436218,0.03324517980217934,-0.037602126598358154,0.08192955702543259,-0.01588236354291439,0.16997991502285004,0.10523021221160889,0.19470755755901337,-0.0525360181927681,-0.2727682590484619,0.07165154069662094,0.028500204905867577,0.05563942342996597,-0.07001546770334244,-0.06669347733259201,-0.07392685115337372,-0.0889846533536911,-0.06506140530109406,-0.1010504737496376,-0.033669862896203995,0.02984710969030857,0.03513297811150551,-0.006387842353433371,0.033544186502695084,0.0378754585981369,0.02594625949859619,0.0824841782450676,0.04459068179130554,-0.02588755078613758,0.014063721522688866,0.05224503204226494,0.10248225927352905,0.08264356851577759,0.08050381392240524,0.06615227460861206,0.27391570806503296,0.012744457460939884,-0.12289011478424072,0.06391730159521103,0.12856043875217438,-0.01349698007106781,-0.017913447692990303,-0.02343970350921154,0.06235296279191971,0.004146162420511246,-0.10152856260538101,0.04804009199142456,-0.01020059734582901,0.1446114033460617,0.05347808450460434,0.050983164459466934,-0.01468695793300867,0.004483220633119345,0.049182817339897156,0.06513557583093643,0.048072367906570435,-0.011489925906062126,0.029472853988409042,0.040364332497119904,-0.06115040183067322,-0.09735085070133209,0.13304434716701508,0.08131260424852371,0.07988940924406052,-0.022610535845160484,-0.13307224214076996,0.0021863465663045645,0.031834427267313004,0.09742722660303116,0.06928589940071106,-0.0018623995129019022,0.06749438494443893,0.006325400434434414,-0.11361443251371384,-0.06653536856174469,0.10053426027297974,0.12418677657842636,0.08832140266895294,0.01756112463772297,0.010134587064385414,0.024502959102392197,0.01672206073999405,0.05643514543771744,0.03182579204440117,0.024528753012418747,0.03148437291383743,0.0384613536298275,0.03366938978433609,-0.11021973937749863,0.01884533278644085,0.06411848217248917,0.11991632729768753,0.02114773541688919,-0.08563721179962158,0.06659228354692459,0.015960030257701874,0.08242075890302658,0.11064503341913223,0.17878487706184387,0.1304372251033783,0.0106578404083848,-0.0036889782641083,0.03385726362466812,0.10561782121658325,0.10313177853822708,0.12681512534618378,0.010501251555979252,0.052425678819417953,0.05716489255428314,0.06410425901412964,0.03629377856850624,0.03713793307542801,-0.016077790409326553,0.005693341139703989,0.05895606800913811,-0.04627395048737526,-0.058105163276195526,0.038816217333078384,0.050249677151441574,0.1527484953403473,0.18350601196289062,0.10054555535316467,-0.016844352707266808,0.04686851426959038,0.15355338156223297,0.09400296211242676,0.05713759735226631,0.034973643720149994,-0.04091222956776619,0.010081482119858265,0.0536990649998188,0.059897374361753464,0.09271828830242157,0.09033022075891495,0.019041458144783974,0.06610315293073654,0.11369292438030243,0.10450337827205658,0.14433139562606812,-0.050345782190561295,0.001609546015970409,-0.012616278603672981,-0.036687299609184265,-0.0038134849164634943,-0.12458884716033936,-0.07082614302635193,-0.0160574521869421,0.31222131848335266,0.0472928062081337,0.21680258214473724,0.05217376723885536,0.05936276167631149,0.03546375036239624,0.08714117854833603,0.011606743559241295,0.18584196269512177,0.008057994768023491,-0.0543944351375103,0.07986937463283539,0.06762424856424332,0.025309888646006584,0.10230936110019684,0.15890346467494965,0.19670559465885162,0.0804346576333046,0.14414425194263458,0.10971500724554062,0.05712173134088516,0.05761226266622543,-0.026835540309548378,-0.0989701896905899,-0.16166599094867706,0.055329274386167526,-0.17336760461330414,0.015659285709261894,0.25149089097976685,-0.01648392155766487,0.006231777369976044,0.01789495162665844,0.05268698185682297,0.05796390771865845,0.026540003716945648,0.10579099506139755,0.045394282788038254,0.08202971518039703,0.06116093322634697,0.05373406782746315,0.006367604713886976,0.08838557451963425,0.06525086611509323,0.10012468695640564,0.10462864488363266,0.06809539347887039,0.09966485947370529,0.19674500823020935,0.21973547339439392,0.14096857607364655,0.0798717588186264,-0.09605719149112701,-0.155997171998024,-0.12379449605941772,-0.18064333498477936,-0.03130041062831879,0.028491435572504997,0.10686053335666656,-0.035831984132528305,0.02360154502093792,0.03649983927607536,-0.07084538042545319,-0.062175896018743515,-0.10478626191616058,0.06335283815860748,-0.014700069092214108,-0.012759316712617874,0.020449485629796982,0.07356532663106918,-0.005583960097283125,0.06587649136781693,0.09275645762681961,0.10653083026409149,0.13277843594551086,0.18811577558517456,0.20799823105335236,0.14134544134140015,0.11569272726774216,-0.018206633627414703,-0.010325142182409763,0.06788792461156845,0.09262266010046005,0.10258182138204575,0.21998274326324463,-0.07515523582696915,0.12286501377820969,-0.004115927964448929,0.027759641408920288,0.01635381020605564,0.0969560295343399,0.04625975713133812,0.025621145963668823,0.03337991610169411,-0.06017469987273216,0.027743805199861526,-0.08494849503040314,-0.12972059845924377,-0.02667013369500637,0.022120138630270958,0.13031116127967834,0.1540614366531372,0.13956327736377716,0.08922255039215088,0.13505277037620544,0.13522394001483917,0.1396571546792984,0.13095885515213013,0.08918360620737076,0.019226280972361565,0.08605560660362244,0.06788920611143112,0.1482090801000595,-0.17504507303237915,0.008710893802344799,-0.026143863797187805,-0.019693678244948387,-0.0944371372461319,0.05369767174124718,0.0817764550447464,-0.012386664748191833,-0.10006897896528244,-0.019015328958630562,0.016499251127243042,0.03860859572887421,-0.029799092561006546,-0.05545438453555107,-0.01597621478140354,-0.09799426048994064,-0.01345828641206026,-0.1293681561946869,-0.19284217059612274,-0.10515034198760986,-0.03485430032014847,-0.004876723513007164,0.13179536163806915,0.09969712048768997,0.03534548357129097,0.07882910966873169,0.06427536904811859,0.08966843783855438,-0.029976317659020424,-0.12321636825799942,-0.10652414709329605,-0.1203388050198555,-0.12202302366495132,-0.08167719095945358,0.026223981752991676,-0.06129053235054016,-0.16000640392303467,-0.16051176190376282,-0.23794807493686676,-0.14943477511405945,-0.10253812372684479,-0.2037660777568817,-0.2835698425769806,-0.32723763585090637,-0.30887570977211,-0.33530178666114807,-0.29823070764541626,-0.26235613226890564,-0.28366172313690186,-0.2122800350189209,0.011713074520230293,-0.13085149228572845,-0.05324307084083557,0.11972767114639282,-0.004517732188105583,0.1123305931687355,0.0018827180610969663,-0.024469926953315735,-0.03500381112098694,-0.07438275963068008,-0.18318748474121094,-0.03901121765375137,-0.10146334022283554,0.04925021529197693,-0.054517053067684174,-0.02667406015098095,-0.0067902435548603535,0.00664477190002799,-0.0912988930940628,-0.11586201190948486,-0.08063172549009323,-0.18789467215538025,-0.0598716177046299,-0.142522931098938,-0.2146548181772232,-0.18464113771915436,-0.21727485954761505,-0.32579272985458374,-0.15704099833965302,-0.02052438259124756,-0.08979596197605133,0.0036463229916989803,0.09129320085048676,0.14768749475479126,-0.013270207680761814,-0.11270100623369217,-0.14729511737823486,-0.00898059830069542,0.060437317937612534,-0.083428755402565,-0.0024098651483654976,0.0667077898979187,0.07184574007987976,-0.08331145346164703,0.04248294234275818,0.04733223840594292,0.03545328974723816,-0.01614886149764061,0.006174428388476372,-0.07418988645076752,0.02755643054842949,-0.13649262487888336,0.027185823768377304,-0.017491761595010757,-0.1373285949230194,-0.2051442265510559,-0.15766747295856476,-0.17897270619869232,-0.058062415570020676,-0.09463641047477722,-0.0014354619197547436,0.08399784564971924,-0.11385925859212875,-0.15360663831233978,-0.23063614964485168,-0.23377962410449982,-0.1181899905204773,-0.32833555340766907,-0.19669441878795624,-0.14237932860851288,-0.20524777472019196,-0.3368090093135834,-0.17646503448486328,-0.11476673930883408,-0.2052025943994522,-0.09257688373327255,-0.16570046544075012,-0.1981763392686844,-0.3619222640991211,-0.18114672601222992,-0.08356889337301254,-0.16838376224040985,-0.40021347999572754,-0.4453147351741791,-0.33559149503707886,-0.36355316638946533,-0.27296096086502075,-0.32181718945503235,-0.005407765042036772,0.006336519960314035,-0.0038099177181720734,0.0544171966612339,-0.24775509536266327,-0.24023650586605072,-0.3309987783432007,-0.462365984916687,-0.4204377233982086,-0.4099196791648865,-0.5497812032699585,-0.5001679062843323,-0.4350866973400116,-0.40555498003959656,-0.4332839548587799,-0.44341155886650085,-0.30132418870925903,-0.38338950276374817,0.05776374042034149,-0.4388327896595001,-0.5123395323753357,-0.625532329082489,-0.515535831451416,-0.6281210780143738,-0.3224536180496216,-0.33421510457992554,-0.24695369601249695,-0.09923925250768661,0.06255524605512619,-0.10948074609041214,0.008027642965316772}
,{0.01602979376912117,-0.03295212611556053,0.03724933788180351,0.034437429159879684,0.004753819666802883,-0.07603064179420471,0.05999361723661423,0.2121095508337021,0.10043018311262131,0.018772583454847336,0.2651357054710388,0.07937575876712799,0.2609497606754303,0.3914581537246704,0.3088690936565399,0.16335295140743256,0.33824053406715393,0.32436439394950867,0.09106368571519852,0.2753884792327881,0.23249179124832153,0.25930264592170715,0.19617082178592682,0.18740524351596832,0.25948503613471985,0.1209341511130333,-0.03619920462369919,0.009218250401318073,0.22894495725631714,0.015628546476364136,-0.058483339846134186,0.26513609290122986,-0.09676657617092133,-0.10397005081176758,0.01816173829138279,-0.11997714638710022,-0.022047925740480423,0.0037706939037889242,-0.059249117970466614,-0.09216497838497162,0.0017069028690457344,0.15152689814567566,0.3040078282356262,0.35490840673446655,0.3637957274913788,0.2968715727329254,0.09448298066854477,-0.01146017201244831,0.03562144562602043,0.06939628720283508,0.09007320553064346,-0.039664287120103836,-0.00891734380275011,0.013983514159917831,-0.19453482329845428,-0.29147252440452576,-0.13921698927879333,0.09871799498796463,0.09542626142501831,0.014836895279586315,-0.14240549504756927,-0.29179951548576355,-0.31118252873420715,-0.2682968080043793,-0.1812160313129425,-0.07933302968740463,-0.10294994711875916,-0.09949816018342972,-0.21873775124549866,-0.22662773728370667,-0.10971642285585403,-0.18762508034706116,0.043102238327264786,-0.01820368506014347,-0.09457743167877197,-0.020661387592554092,-0.008255237713456154,0.06301815062761307,0.03545720875263214,-0.07063215970993042,-0.06644431501626968,0.05235714092850685,-0.011058880016207695,0.0773320123553276,0.10385417193174362,-0.1430216133594513,-0.14580872654914856,0.10051993280649185,-0.10336057096719742,-0.2657794654369354,-0.3737645745277405,-0.3832445740699768,-0.25723564624786377,-0.10014958679676056,-0.20991741120815277,-0.14748799800872803,-0.215899258852005,-0.20924489200115204,-0.12063144892454147,-0.07284004241228104,0.028618864715099335,-0.05398566275835037,0.045969340950250626,0.07116059213876724,-0.05614538863301277,0.09490177780389786,0.07675496488809586,-0.03580706566572189,-0.12385937571525574,0.010517519898712635,-0.04911508411169052,-0.09070772677659988,-0.0748334527015686,-0.2724604308605194,-0.08728329837322235,-0.1356535106897354,-0.09957215934991837,-0.010554368607699871,-0.20581217110157013,-0.15891417860984802,-0.15610690414905548,-0.16618791222572327,-0.019099295139312744,-0.09682680666446686,0.022971700876951218,0.05035126209259033,-0.07621819525957108,0.06641237437725067,0.025176305323839188,0.14106041193008423,0.05589594319462776,0.016269585117697716,-0.05141289159655571,0.03634857013821602,-0.034031014889478683,0.03693670034408569,-0.024401074275374413,-0.11099141091108322,-0.12850914895534515,0.0691058486700058,-0.07447806000709534,0.05180756375193596,0.020689893513917923,0.03125528246164322,-0.07843324542045593,-0.21725773811340332,-0.2295960634946823,-0.27278023958206177,-0.09044431149959564,-0.08064961433410645,0.01676393672823906,0.02614608407020569,-0.050291310995817184,0.01005786657333374,0.05133291333913803,0.08342951536178589,0.13161545991897583,0.12516827881336212,0.11117227375507355,0.02030990645289421,-0.013631736859679222,0.0617985874414444,0.11306263506412506,-0.012501613236963749,-0.036316219717264175,-0.004192751832306385,-0.15203610062599182,-0.05167093500494957,-0.10288184136152267,0.11790069937705994,0.0747351199388504,0.006790412589907646,-0.014604736119508743,-0.12475013732910156,-0.1262976974248886,-0.20169779658317566,-0.15283849835395813,0.008005140349268913,0.13647623360157013,0.06422323733568192,0.08437605202198029,0.06155513972043991,0.08534944802522659,0.11005715280771255,0.1125946193933487,0.042218610644340515,0.1476828157901764,0.053271323442459106,0.06330165266990662,-0.030069714412093163,0.048930443823337555,-0.02102677896618843,-0.044909197837114334,-0.05232065171003342,-0.16025382280349731,-0.030140511691570282,-0.10498225688934326,-0.058642275631427765,-0.040568698197603226,-0.07380209863185883,-0.18859516084194183,-0.11042674630880356,-0.0731893852353096,-0.12651409208774567,0.07743870466947556,-0.052135441452264786,-0.05060414597392082,0.0688704177737236,-0.003787862602621317,0.10331212729215622,0.11276567727327347,0.04094349592924118,0.030079029500484467,0.09477155655622482,0.031146351248025894,0.11654950678348541,0.036042675375938416,0.06872522085905075,0.11385930329561234,0.056797172874212265,0.07117657363414764,-0.08366627246141434,-0.1521301120519638,-0.016202669590711594,-0.15070919692516327,-0.04094289615750313,-0.05288867652416229,-0.06274709850549698,-0.15015245974063873,0.22414566576480865,-0.036743585020303726,-0.007384688127785921,0.0015123221091926098,0.11336493492126465,0.09528021514415741,0.04955339431762695,0.09339366853237152,0.049939557909965515,-0.03491805121302605,-0.11341716349124908,-0.20538458228111267,-0.08064933866262436,0.11876291036605835,0.18551728129386902,0.20535007119178772,-0.009106251411139965,-0.018454859033226967,-0.017031392082571983,-0.02264312095940113,-0.12127046287059784,-0.05258668586611748,0.0038223222363740206,-0.2607514560222626,-0.09283000230789185,-0.24945402145385742,0.004967890679836273,-0.09784110635519028,-0.023455774411559105,-0.10922205448150635,0.023249737918376923,0.02178370952606201,0.03326151520013809,0.120417021214962,0.019798140972852707,0.08390245586633682,0.055419426411390305,0.01745654083788395,-0.024926789104938507,-0.04210963845252991,0.10235074907541275,0.19821687042713165,0.21005472540855408,0.1690412014722824,-0.03053065575659275,-0.11508055031299591,0.02107151970267296,-0.09013288468122482,0.04702248051762581,-0.004741016309708357,0.04506482928991318,0.14824815094470978,-0.049632251262664795,-0.16508068144321442,-0.06480249017477036,0.10497505962848663,-0.013326955959200859,0.08488579094409943,0.06408929079771042,-0.10328440368175507,-0.04809648543596268,0.040111690759658813,0.06205940246582031,0.1210695207118988,0.06766179949045181,0.05210571736097336,0.05032189190387726,0.039083436131477356,0.16549815237522125,0.08047091215848923,0.2456756830215454,0.01678299345076084,-0.1518544703722,-0.030016882345080376,-0.07455403357744217,0.060202859342098236,0.02763831429183483,-0.08548705279827118,0.021397393196821213,-0.10555674880743027,-0.019159488379955292,0.06411004811525345,0.01931452378630638,0.04842424392700195,0.033853139728307724,0.02373700775206089,0.07435876876115799,-0.08021041750907898,0.030836548656225204,0.05908336862921715,0.16902907192707062,0.1037871390581131,0.11666353791952133,0.0498235784471035,0.014406325295567513,0.21453993022441864,0.16522274911403656,0.2786131799221039,0.1667991280555725,-0.08389664441347122,-0.21812595427036285,-0.23630842566490173,-0.07215934991836548,0.00032261465094052255,-0.04740538448095322,0.013709312304854393,-0.048492345958948135,-0.218926802277565,0.01666281744837761,0.05165085941553116,0.16658636927604675,-0.02728261984884739,0.043689511716365814,0.10535277426242828,0.05251665785908699,0.08687729388475418,0.007338459603488445,0.14100246131420135,0.008586540818214417,0.06769450008869171,0.09953499585390091,0.19885945320129395,0.11109621822834015,0.05196244642138481,0.1570640504360199,0.23936666548252106,0.04231434315443039,-0.1509529948234558,-0.15001986920833588,-0.08691458404064178,-0.14781929552555084,-0.12194479256868362,-0.03921941667795181,-0.14698925614356995,-0.050119008868932724,-0.014438560232520103,0.08332504332065582,0.07354697585105896,0.21081288158893585,0.027712209150195122,0.11335020512342453,0.03171438351273537,0.05287259817123413,0.020768770948052406,-0.015302115119993687,0.03425656259059906,-0.03253466635942459,0.035700518637895584,0.0751427486538887,0.11700402200222015,0.2789669632911682,0.21286769211292267,0.22512920200824738,0.2020881026983261,-0.019126426428556442,-0.07849961519241333,-0.12303042411804199,-0.15112879872322083,0.028590811416506767,-0.057357341051101685,-0.25500667095184326,-0.06480128318071365,-0.06850661337375641,-0.004566221032291651,0.0004519749491009861,0.06621606647968292,0.13370150327682495,-0.063283272087574,-0.0733112171292305,-0.04776357114315033,-0.11634663492441177,-0.0496814101934433,-0.045763906091451645,-0.012307354249060154,0.01761690154671669,0.088135726749897,0.1625792533159256,0.12517297267913818,0.2569345235824585,0.14062152802944183,0.09052175283432007,0.0556914359331131,-0.10642211884260178,-0.22189317643642426,-0.1996908336877823,-0.10443640500307083,-0.10150481015443802,0.0029168855398893356,-0.08331222832202911,-0.07978077977895737,-0.09597084671258926,0.00083879817975685,-0.0008916076621972024,-0.014277900569140911,-0.0655585527420044,-0.017916908487677574,-0.172819584608078,-0.05147518217563629,-0.03996491804718971,0.027760641649365425,-0.00029027744312770665,0.008975631557404995,0.25656652450561523,0.07573948800563812,-0.031940530985593796,-0.014099759981036186,0.17784884572029114,0.02023463137447834,0.0037846374325454235,0.03931310772895813,-0.32700827717781067,-0.3034593164920807,-0.16850540041923523,-0.17981117963790894,-0.09829969704151154,-0.18748292326927185,-0.019111311063170433,0.00485053239390254,-0.0341498926281929,0.14937061071395874,0.12014200538396835,0.03150279074907303,-0.00944934319704771,-0.019059235230088234,-0.13838768005371094,0.007808841299265623,0.024235477671027184,0.025530919432640076,0.08985582739114761,0.12863321602344513,0.15215443074703217,0.05556800588965416,0.06152340769767761,0.0016009280225262046,0.0003016881528310478,-0.028886903077363968,0.0403086319565773,-0.06521464139223099,-0.33069321513175964,-0.11394492536783218,-0.10690325498580933,-0.0955316573381424,-0.06575703620910645,0.028660820797085762,-0.11395982652902603,-0.15931828320026398,-0.061964526772499084,0.07470192760229111,-0.00151874590665102,-0.17251376807689667,-0.010137301869690418,-0.03978052735328674,-0.1331392526626587,-0.20534497499465942,0.02257714420557022,0.07219269126653671,0.203083798289299,0.17827720940113068,0.1079859659075737,0.04880371317267418,-0.031153906136751175,-0.03058934211730957,0.10777372121810913,-0.016685068607330322,0.08955106139183044,-0.21400116384029388,-0.2793888449668884,-0.20500659942626953,-0.08660468459129333,-0.112085722386837,-0.018299279734492302,-0.09099115431308746,-0.1899167001247406,-0.1527966558933258,0.06791478395462036,-0.1900397688150406,-0.18291983008384705,0.007956670597195625,0.024130985140800476,-0.03702205792069435,-0.14068259298801422,-0.0500628761947155,-0.06859095394611359,0.056384339928627014,0.07872070372104645,0.13580739498138428,0.028334490954875946,-0.09967801719903946,-0.06793197989463806,-0.027895042672753334,-0.1333785206079483,-0.07228311896324158,0.07413627952337265,-0.24896365404129028,-0.18056419491767883,-0.1277853101491928,-0.09434870630502701,-0.11803001165390015,-0.018347183242440224,0.03323341906070709,-0.09479709714651108,-0.054137445986270905,0.0805523544549942,-0.01248076930642128,-0.045997243374586105,-0.021716097369790077,-0.07019615918397903,-0.05015139281749725,-0.22777150571346283,-0.02745971269905567,-0.12109485268592834,-0.037857767194509506,0.04605601727962494,0.06309011578559875,-0.05207343399524689,-0.03407136723399162,0.04040718451142311,0.004575903527438641,-0.016906358301639557,0.0350467823445797,-0.021252933889627457,-0.0977218970656395,-0.21969503164291382,-0.042282942682504654,-0.12425824999809265,-0.06158191338181496,-0.06251336634159088,-0.08436166495084763,-0.1865614503622055,0.023339413106441498,0.07018495351076126,-0.025490518659353256,0.02082018367946148,0.10572034120559692,0.07850050926208496,-0.2412780076265335,-0.15555456280708313,9.467123163631186e-05,0.027313726022839546,-0.0037375984247773886,0.051319967955350876,0.09922095388174057,-0.11684566736221313,0.010887960903346539,0.017186567187309265,-0.081155925989151,0.03884175419807434,0.019686304032802582,0.006550178863108158,-0.1680392324924469,-0.1406014859676361,-0.1057913526892662,-0.1954968124628067,-0.09021687507629395,0.010820256546139717,-0.1396527737379074,-0.04606442525982857,0.09801928699016571,0.2614390254020691,-0.0230519138276577,0.15225841104984283,-0.06096186861395836,-0.005823886953294277,-0.019223036244511604,-0.11271065473556519,-0.01850806549191475,0.1149507611989975,0.05687317997217178,0.05340282618999481,-0.12100208550691605,-0.05326712504029274,0.047308240085840225,-0.00301424995996058,0.05028897896409035,0.038600072264671326,-0.013841735199093819,0.08460258692502975,0.01928013749420643,-0.12357845157384872,-0.03949739411473274,-0.15210026502609253,0.00554475886747241,-0.11556250602006912,-0.07962632924318314,0.02765009179711342,0.06554289907217026,0.10521996766328812,0.10803401470184326,0.026666896417737007,-0.15083597600460052,-0.10730351507663727,-0.09332562983036041,-0.006107826251536608,-0.03631012886762619,0.030922187492251396,0.07641489803791046,-0.11158350110054016,-0.2125278264284134,-0.07849732786417007,0.022912459447979927,0.0657784640789032,0.07155247032642365,0.0005457112565636635,-0.057364195585250854,-0.028864702209830284,0.00255703367292881,-0.12557931244373322,-0.07335420697927475,-0.054520320147275925,-0.05591246858239174,-0.06945698708295822,0.012258945032954216,-0.007511938456445932,0.0961141437292099,0.1605825275182724,0.17051035165786743,0.14164197444915771,0.0068264976143836975,-0.07160090655088425,-0.12860935926437378,-0.04964179918169975,-0.020961714908480644,0.06593543291091919,0.062302932143211365,-0.06416509300470352,-0.19631846249103546,-0.11569628119468689,0.12400485575199127,0.15198367834091187,0.1704527735710144,0.04082368314266205,-0.04986628144979477,-0.0329449437558651,-0.04552292823791504,0.07951674610376358,0.02155129425227642,0.0005839300574734807,-0.04350102320313454,0.08863776177167892,0.1342330425977707,0.06046042963862419,0.13773180544376373,0.18058542907238007,-0.054711729288101196,0.1536826342344284,-0.07966755330562592,-0.16816042363643646,0.002502912888303399,0.001835362403653562,0.07001878321170807,-0.11992868036031723,-0.06839830428361893,-0.12398243695497513,0.1519297957420349,-0.03912367299199104,0.09783761948347092,-0.05783965811133385,0.014733062125742435,0.022541221231222153,-0.024201055988669395,-0.04698989912867546,-0.07403590530157089,-0.08302543312311172,-0.07851064950227737,-0.0091179758310318,-0.026161856949329376,0.020936191082000732,0.1820354461669922,0.0070512439124286175,0.11870500445365906,0.06258241087198257,-0.0017352915601804852,0.019695257768034935,0.04099288582801819,-0.0917501300573349,-0.21998487412929535,-0.08494491875171661,-0.1418704241514206,-0.148551806807518,0.0975327342748642,0.12380721420049667,0.02426651120185852,0.10954762995243073,-0.029905639588832855,0.030156956985592842,0.023580975830554962,-0.07318659871816635,-0.014708027243614197,0.010667596012353897,0.020596124231815338,-0.04243132099509239,0.059108324348926544,0.12533777952194214,-0.0565604530274868,0.1219840869307518,0.10944673418998718,0.14892208576202393,0.22827650606632233,-0.022751467302441597,-0.1235228031873703,-0.05937119573354721,-0.07244329154491425,0.15684105455875397,-0.012457986362278461,0.03707742691040039,-0.016115201637148857,0.060357339680194855,-0.03453768044710159,-0.03441344201564789,-0.029837591573596,0.013267060741782188,-0.01324697956442833,-0.04903889074921608,-0.11717015504837036,-0.03170030191540718,0.019520187750458717,0.004777652211487293,-0.001685812254436314,-0.02064640261232853,0.04160784184932709,0.012716717086732388,0.23384656012058258,0.11259855329990387,0.282686710357666,0.11464941501617432,0.1856895536184311,0.023645833134651184,-0.07267870754003525,-0.1487898826599121,0.07109561562538147,0.15806864202022552,0.0665840432047844,0.13284265995025635,0.0558147132396698,0.07093897461891174,-0.04756848141551018,0.1173645555973053,0.06738701462745667,-0.02690398134291172,-0.027731796726584435,0.03581828624010086,0.006504463031888008,-0.0028061391785740852,0.053325869143009186,0.013703536242246628,0.07071226835250854,0.2223440706729889,0.16227257251739502,0.2287610024213791,0.17019438743591309,0.16845788061618805,0.20562247931957245,0.06191666051745415,-0.0002731338609009981,0.03407485410571098}
,{0.010277722030878067,-0.00018993020057678223,-0.060223933309316635,0.05039585009217262,-0.08018367737531662,0.03516858071088791,-0.1659785807132721,-0.10739116370677948,-0.018666783347725868,-0.13977167010307312,-0.011153096333146095,0.059215009212493896,-0.030567975714802742,-0.041116222739219666,0.0069322590716183186,0.08338440209627151,-0.0562383197247982,0.0015580954495817423,-0.07694095373153687,0.019866885617375374,-0.17456693947315216,-0.09565986692905426,0.00579936383292079,0.05176125839352608,-0.014572786167263985,-0.18293341994285583,-0.044326331466436386,-0.05479023978114128,0.11456585675477982,0.017080266028642654,0.05186450108885765,-0.08527369797229767,-0.028056640177965164,0.0045529999770224094,0.16930744051933289,0.08417268097400665,-0.18131402134895325,-0.02138352207839489,-0.023219475522637367,-0.0057990229688584805,-0.10504615306854248,-0.17693476378917694,0.17271246016025543,0.08707418292760849,0.12968873977661133,0.07456033676862717,0.007860813289880753,-0.010777674615383148,-0.004880123771727085,0.09260290116071701,0.03146979957818985,0.11989375203847885,-0.08719199895858765,-0.06240466609597206,0.19483508169651031,0.0336516797542572,-0.0024746423587203026,0.06378183513879776,0.0057028913870453835,0.015015928074717522,0.014615047723054886,0.025248199701309204,0.022897940129041672,-0.13492445647716522,-0.1867651343345642,-0.10114321112632751,-0.14132060110569,-0.27060168981552124,-0.23367932438850403,-0.09700889885425568,0.0879027396440506,0.22493098676204681,0.03546556830406189,-0.05195409432053566,-0.08230475336313248,0.03808894753456116,-0.1540001928806305,0.0711309015750885,0.02779746986925602,0.06928378343582153,-0.083653025329113,0.14529648423194885,0.09222258627414703,0.08289089053869247,-0.11380317807197571,0.07666739076375961,-0.12003857642412186,-0.2520877420902252,-0.053010959178209305,0.07269144803285599,-0.20461688935756683,-0.3353900909423828,-0.15634171664714813,-0.2909908890724182,-0.07783306390047073,-0.18951860070228577,-0.22682040929794312,-0.12355759739875793,-0.17781074345111847,-0.10229269415140152,0.10649634897708893,0.09207847714424133,0.12858840823173523,0.04279683157801628,0.04722922667860985,-0.11797622591257095,-0.03991130366921425,-0.022910133004188538,-0.17973914742469788,0.01691928319633007,0.021949216723442078,0.0525360107421875,0.029324322938919067,0.10332231223583221,-0.09642709791660309,-0.08846483379602432,-0.26053386926651,-0.38753020763397217,-0.5803835391998291,-0.29506567120552063,-0.07282718271017075,-0.32171687483787537,-0.2546159327030182,-0.21087974309921265,-0.13898256421089172,-0.10049686580896378,-0.057648517191410065,-0.030288493260741234,-0.0091676265001297,0.08076268434524536,-0.05031571164727211,-0.006895462516695261,0.02891717292368412,-0.03553012013435364,-0.0439608134329319,-0.022655658423900604,-0.05045296624302864,0.00588982505723834,-0.049137454479932785,0.16494184732437134,-0.10107293725013733,0.05164238438010216,-0.06472166627645493,-0.33516374230384827,-0.3477950096130371,-0.10799358785152435,0.023741884157061577,-0.17151828110218048,-0.20658376812934875,-0.19225969910621643,-0.019400492310523987,-0.08792911469936371,-0.13062040507793427,-0.15073706209659576,-0.10735312104225159,-0.03670693561434746,0.07711219787597656,0.020373819395899773,0.1363486349582672,0.03736249729990959,0.002012397861108184,-0.08768629282712936,-0.06503573805093765,-0.060257088392972946,-0.10281769931316376,-0.03683255985379219,0.07678260654211044,0.0951726883649826,0.05618243291974068,-0.09012837707996368,-0.16043595969676971,-0.10212200880050659,-0.01206847932189703,-0.0684693455696106,-0.15389467775821686,0.023601246997714043,-0.16234003007411957,-0.025459829717874527,-0.05597101151943207,-0.08919452130794525,-0.057609640061855316,-0.11791365593671799,-0.15340209007263184,-0.18271087110042572,-0.1133589819073677,0.07184461504220963,0.03269687294960022,0.1296454817056656,0.029399925842881203,-0.03950565308332443,-0.04599638283252716,-0.060071028769016266,-0.08048467338085175,-0.162601038813591,0.09121885895729065,0.15089073777198792,0.18835361301898956,-0.13385918736457825,0.009405570104718208,-0.050778161734342575,-0.009056413546204567,-0.08791238814592361,-0.03767268359661102,0.05227747559547424,0.06233832240104675,-0.027603713795542717,-0.03811892494559288,-0.10402913391590118,-0.04876397177577019,0.006649534218013287,-0.03505146875977516,-0.06406214088201523,-0.2455613613128662,-0.060899075120687485,0.1214507594704628,0.11287849396467209,0.11292076110839844,0.12249764055013657,0.042242471128702164,-0.03220676630735397,-0.04893659055233002,0.010177343152463436,0.05538491532206535,0.12774983048439026,0.10878010839223862,0.03713507205247879,-0.06551381945610046,-0.07461024075746536,-0.013871941715478897,-0.036719173192977905,0.06361757963895798,-0.044939253479242325,-0.011175310239195824,0.07846613973379135,-0.02084713615477085,0.05114638805389404,-0.0504036620259285,0.005797292105853558,-0.11549917608499527,-0.1636277437210083,-0.11830360442399979,-0.1661604940891266,-0.003590045729652047,-0.002016250742599368,0.08326580375432968,0.13521793484687805,0.047994401305913925,0.03803766891360283,-0.1159476712346077,-0.004422952886670828,0.013982987962663174,-0.05090632289648056,-0.012121522799134254,0.13545992970466614,0.012570178136229515,-0.08469004184007645,-0.04158499091863632,-0.11582303792238235,0.13181233406066895,0.03890051320195198,0.09389539808034897,-0.06507612764835358,-0.05236086994409561,0.04196637123823166,0.09042911231517792,0.029606973752379417,-0.0638127326965332,-0.11066845059394836,-0.1913222074508667,-0.18116435408592224,-0.14943720400333405,0.03023417480289936,0.1083693653345108,0.11661989986896515,0.0467752069234848,0.07021716982126236,0.12843061983585358,-0.0028439166489988565,0.09087210148572922,-0.14472192525863647,0.08323830366134644,0.15058597922325134,0.09566564857959747,0.07177800685167313,-0.04054887592792511,0.09067977964878082,0.05732521787285805,0.022133629769086838,0.2158757746219635,0.01379979308694601,-0.03846104443073273,0.1647842675447464,0.09160212427377701,0.09462227672338486,0.04006637632846832,-0.16617976129055023,-0.34041526913642883,-0.2075803279876709,-0.03172232210636139,-0.024716272950172424,0.011897613294422626,0.009223668836057186,0.11869394779205322,0.09117111563682556,0.14861901104450226,0.07759950309991837,0.170429989695549,-0.06075955182313919,-0.0902382954955101,-0.13242678344249725,0.11718986928462982,0.03696197271347046,0.07983961701393127,0.06758856773376465,0.012097915634512901,0.10309860110282898,-0.032593656331300735,0.12103286385536194,0.13745881617069244,0.12112832069396973,0.1848541796207428,0.11173484474420547,-0.008424610830843449,-0.38140302896499634,-0.2636357247829437,-0.12360108643770218,-0.05143324285745621,-0.0056333839893341064,0.04740915447473526,0.06703294068574905,0.04994819313287735,0.12387389689683914,0.14957861602306366,0.12153781205415726,-0.004501150920987129,-0.0200258307158947,-0.14757482707500458,-0.04061615467071533,0.08505678921937943,0.05032627657055855,0.09436871856451035,-0.036640316247940063,0.13735714554786682,-0.05728781595826149,-0.06370145827531815,0.04437140002846718,0.1164856106042862,0.13333918154239655,0.1117139607667923,-0.06266837567090988,-0.07588512450456619,-0.44749876856803894,-0.22435128688812256,-0.09052389115095139,0.07843157649040222,0.028823524713516235,0.061444662511348724,0.007306177169084549,0.13824611902236938,0.07042687386274338,0.08141517639160156,0.24310177564620972,0.036768585443496704,0.11388541013002396,0.05214357748627663,0.0016541482182219625,0.14814196527004242,0.0005043339915573597,-0.02958688698709011,0.02708960697054863,-0.018719090148806572,0.11413835734128952,-0.0792815163731575,0.07940808683633804,-0.03244781866669655,0.0707557424902916,0.02469668723642826,-0.043123576790094376,-0.2908596396446228,-0.3750205636024475,-0.14052093029022217,0.0077775614336133,0.0008620961452834308,0.035770248621702194,0.08068539947271347,0.13247251510620117,0.22601749002933502,0.20067539811134338,-0.019319923594594002,0.13189943134784698,0.15127086639404297,-0.03591114282608032,0.07897629588842392,0.12872181832790375,0.06305426359176636,-0.08897581696510315,-0.16948533058166504,0.01552849356085062,0.08584518730640411,0.08842598646879196,0.150773286819458,0.12806598842144012,0.11486084759235382,-0.042502399533987045,-0.13276655972003937,-0.051044873893260956,-0.3671797811985016,-0.29016897082328796,-0.1539168804883957,0.03618000075221062,0.013013266026973724,0.08762177079916,0.12091526389122009,0.16481253504753113,0.15664412081241608,0.12028490006923676,0.11892193555831909,0.10262517631053925,0.07354986667633057,-0.07964035123586655,0.0146429892629385,0.23723696172237396,-0.028504876419901848,-0.11022620648145676,0.08241119235754013,0.038137298077344894,-0.015592043288052082,0.01865767501294613,0.0854390561580658,0.019025608897209167,0.054307010024785995,-0.22325238585472107,-0.19816891849040985,-0.2554585337638855,-0.19130432605743408,-0.2348637580871582,0.014547327533364296,0.1444455236196518,0.02224653586745262,0.12874729931354523,0.10735996067523956,0.12941335141658783,0.08450549840927124,0.02765609510242939,0.09812034666538239,0.16892452538013458,0.10496938228607178,0.00041168907773680985,-0.06519394367933273,-0.05138561502099037,0.02967861481010914,-0.08630967885255814,-0.0517684705555439,-0.05445960909128189,0.03814585134387016,0.09880039840936661,0.04650278016924858,0.12056165188550949,-0.0864364504814148,-0.23362576961517334,-0.46684738993644714,-0.14424347877502441,-0.22751384973526,-0.019407030194997787,0.048643745481967926,0.09796422719955444,0.14123409986495972,0.10937947779893875,0.15877898037433624,0.025052042677998543,0.08235732465982437,-0.00852515734732151,-0.03589882701635361,0.14156945049762726,0.014335096813738346,0.03403814882040024,-0.17845222353935242,0.0430607870221138,-0.044849880039691925,0.12382333725690842,0.045729681849479675,0.07900989055633545,-0.10168953984975815,0.030096398666501045,0.01568986475467682,-0.07318269461393356,-0.16651156544685364,-0.4995899796485901,-0.3679679036140442,-0.13104230165481567,0.03684490919113159,0.1297881305217743,0.17805178463459015,0.1370529681444168,0.09757478535175323,0.12254774570465088,0.022024497389793396,0.023136254400014877,-0.012755127623677254,0.1222490668296814,0.1354258805513382,0.033795855939388275,-0.038136087357997894,-0.012267489917576313,-0.04738757386803627,0.08689400553703308,-0.04416670650243759,0.14667189121246338,0.1328115314245224,0.11831890046596527,0.03470896556973457,-0.17865733802318573,-0.04798391833901405,-0.0893595814704895,-0.38083407282829285,-0.24951928853988647,-0.15799015760421753,0.07727569341659546,0.21345210075378418,0.0982678085565567,0.11219733953475952,0.07844814658164978,0.03724822402000427,0.11140895634889603,0.03428332135081291,0.08248056471347809,-0.05935310199856758,0.15329375863075256,-0.0065760486759245396,0.017382442951202393,-0.018904078751802444,-0.04669087380170822,-0.2954208254814148,-0.017635023221373558,0.08002739399671555,0.01624390482902527,0.059049662202596664,0.12193137407302856,0.06380203366279602,-0.101612888276577,-0.16287192702293396,-0.3150256276130676,-0.20844437181949615,-0.11032310128211975,0.052835769951343536,0.1190129816532135,0.1360115259885788,0.09441378712654114,0.10257063806056976,0.12076704949140549,0.10992537438869476,0.04573865607380867,0.007580227684229612,0.0674729272723198,0.009381826967000961,0.10044460743665695,0.1378771811723709,-0.05195681378245354,0.08416269719600677,0.1823001354932785,-0.1637650430202484,0.03787730634212494,-0.008216273039579391,0.07640445232391357,-0.06084294617176056,0.11465932428836823,0.13855770230293274,-0.03309823200106621,-0.13784579932689667,-0.12313183397054672,-0.10719730705022812,0.19108477234840393,0.06926211714744568,0.16518841683864594,0.10766445845365524,0.007939979434013367,0.03342044726014137,-0.0967482179403305,-0.0018892199732363224,-0.017785033211112022,0.10400489717721939,0.08657679706811905,0.04036804661154747,0.07247937470674515,-0.14717397093772888,-0.011405211873352528,0.07652955502271652,0.1089487075805664,-0.08687747269868851,0.06203223392367363,-0.005763174965977669,0.07858484238386154,-0.04063824191689491,0.10691341757774353,0.10985802859067917,-0.07138416171073914,-0.12098430097103119,-0.1854112148284912,-0.02934616059064865,0.07713410258293152,0.07169763743877411,0.1192464530467987,0.08768565207719803,0.030216995626688004,0.061468131840229034,0.043133147060871124,0.051397062838077545,0.012385852634906769,-0.02967899665236473,0.014486600644886494,0.07441691309213638,0.0244145505130291,-0.09165652841329575,-0.15155424177646637,0.23506441712379456,0.17290984094142914,0.18782779574394226,0.1248292624950409,0.09110993891954422,0.1223662719130516,0.15232382714748383,-0.05370287969708443,0.02552502416074276,-0.02986105903983116,-0.1212196871638298,-0.06918171048164368,-0.009850427508354187,-0.006203847471624613,0.11927597969770432,0.07670951634645462,0.04408266395330429,0.023537633940577507,0.0028473359998315573,-0.008455654606223106,0.0047263349406421185,-0.0290986355394125,0.03403656557202339,-0.002691983710974455,-0.060516029596328735,-0.03904743492603302,-0.12153907865285873,-0.2344808131456375,-0.11162407696247101,0.1214003935456276,0.26619845628738403,0.061620790511369705,-0.014784815721213818,-0.025602232664823532,-0.0361478216946125,-0.0034029423259198666,-0.05511798709630966,0.0019168757135048509,0.05052961781620979,-0.022912483662366867,-0.016294144093990326,0.08734799921512604,0.1700020432472229,0.06197170168161392,0.008528360165655613,0.10867801308631897,0.023381587117910385,0.05877463519573212,0.024448085576295853,0.0324074849486351,0.027295539155602455,0.009976372122764587,-0.02071557566523552,-0.07401129603385925,-0.04517163336277008,0.07754245400428772,-0.05806320533156395,0.14626142382621765,0.26570555567741394,0.13347485661506653,0.11570217460393906,0.04606117680668831,-0.08510726690292358,-0.12315987050533295,-0.009558611549437046,-0.02229376509785652,-0.006508433260023594,-0.07425729930400848,-0.049428850412368774,0.1383560299873352,0.1507391482591629,0.046351924538612366,0.12161015719175339,0.09112807363271713,0.0005071944324299693,-0.007262756582349539,0.0026629858184605837,-0.10881030559539795,-0.046385426074266434,0.0945906788110733,-0.008439213037490845,0.09943350404500961,0.05275408923625946,0.23944005370140076,-0.13697709143161774,-0.12039032578468323,-0.05117875337600708,0.156635582447052,0.1394660621881485,-0.04386773332953453,-0.06259868294000626,-0.050377801060676575,-0.06103278324007988,0.061843644827604294,-0.11490507423877716,-0.08042305707931519,0.0365147665143013,0.13713209331035614,0.13207875192165375,0.09897887706756592,0.0437801331281662,0.10330666601657867,0.026610683649778366,0.002418055897578597,-0.06924726068973541,-0.012596619315445423,-0.05474649742245674,-0.04571165516972542,0.0540955550968647,-0.027319973334670067,0.09275143593549728,0.011416438035666943,0.06507577747106552,0.11723606288433075,-0.0999995544552803,0.03299916908144951,0.18569938838481903,-0.12055852264165878,0.09016136825084686,-0.03373385965824127,-0.07326211035251617,-0.08359522372484207,-0.08308342099189758,0.02170751802623272,0.05938548967242241,0.03926344960927963,-0.042074911296367645,0.16990533471107483,0.1217324361205101,0.17210295796394348,0.01340677123516798,0.04207479581236839,0.07567335665225983,0.0024377345107495785,0.1488979011774063,-0.05583934858441353,-0.10038165003061295,0.014186588115990162,0.08558902889490128,-0.01827367953956127,-0.2495834231376648,0.001379154622554779,-0.14165662229061127,-0.09114604443311691,0.04025324061512947,0.11692053079605103,0.06806802749633789,0.24565604329109192,0.10007598996162415,-0.1974930465221405,-0.1771193891763687,-0.13788475096225739,-0.03015536069869995,0.08224619925022125,-0.04743596538901329,0.0012542027980089188,0.1878337264060974,0.12458593398332596,0.26615381240844727,0.31048741936683655,0.2929799556732178,0.3617526590824127,0.3218425214290619,0.01890077255666256,0.0930371806025505,0.15172146260738373,-0.2830555737018585,0.06267324090003967,0.08279141038656235,0.021348528563976288}
,{-0.032758284360170364,-0.0173678919672966,0.008937764912843704,-0.060716111212968826,-0.01036063488572836,-0.04449734464287758,-0.14006412029266357,-0.1251559555530548,-0.29019853472709656,-0.15631303191184998,-0.23954489827156067,-0.37472134828567505,-0.06828255951404572,-0.3187308609485626,-0.0836956724524498,0.05793378874659538,-0.055565495043992996,0.07067476958036423,-0.021633177995681763,0.06541747599840164,0.038039859384298325,-0.022821947932243347,0.10334651917219162,-0.025073926895856857,0.04259686544537544,0.044090110808610916,-0.2191794365644455,-0.10063065588474274,0.0033772732131183147,-0.010464085265994072,0.00043112304410897195,0.056712742894887924,0.12492449581623077,0.233162060379982,-0.06646376103162766,-0.028413787484169006,-0.22668123245239258,-0.15624362230300903,-0.19410619139671326,-0.2206297516822815,-0.2910120189189911,-0.09449884295463562,0.07481423765420914,-0.13728155195713043,0.027735097333788872,0.11080773919820786,0.23139195144176483,0.11102855950593948,0.05363010987639427,0.060647763311862946,0.09853670001029968,0.12498883157968521,0.00019548549607861787,-0.03278663754463196,-0.17912939190864563,-0.2253694236278534,0.28141269087791443,0.03177401423454285,0.18337254226207733,0.13167160749435425,0.26589083671569824,0.42248377203941345,0.291881799697876,0.03755517676472664,-0.053269658237695694,0.07388777285814285,-0.06103102117776871,0.09861312806606293,-0.04950131103396416,-0.12177206575870514,-0.06981522589921951,0.04358065500855446,0.16429075598716736,0.24462158977985382,0.20193475484848022,0.12130691111087799,0.24309980869293213,0.10368726402521133,0.06698942929506302,0.03463732451200485,0.07630953937768936,0.035639289766550064,0.06501799076795578,-0.02552432380616665,0.14291447401046753,0.09695389866828918,0.07753442972898483,0.12512008845806122,0.3687098026275635,0.3665235638618469,0.3422539532184601,0.2183106392621994,0.5140758156776428,0.3017391860485077,0.24608606100082397,0.11986164003610611,-0.05667085200548172,-0.20148828625679016,-0.027139924466609955,-0.020922012627124786,-0.007417100947350264,0.013411466963589191,-0.06790178269147873,0.1328636258840561,0.09281764179468155,0.15540887415409088,-0.0036731434520334005,0.04378826916217804,0.08547770977020264,0.050754714757204056,0.3481932282447815,0.12148276716470718,0.08068227022886276,0.053484417498111725,0.2086268961429596,0.34166935086250305,0.5131989121437073,0.46630266308784485,0.6356337070465088,0.6330469250679016,0.300052672624588,0.1868467777967453,0.2092389315366745,0.14495506882667542,-0.020418064668774605,-0.009753121994435787,0.034032322466373444,-0.017894631251692772,-0.10979050397872925,-0.1881592869758606,-0.09596959501504898,-0.12802384793758392,-0.07166457921266556,-0.04349403828382492,0.110131174325943,0.0535019226372242,-0.03622528910636902,0.15446718037128448,0.5961446762084961,0.5102720856666565,0.3001307547092438,0.3876192569732666,0.38975173234939575,0.5826724171638489,0.433167427778244,0.6438533663749695,0.6754623055458069,0.25368356704711914,0.05349653586745262,0.10747314244508743,0.044511232525110245,0.1397261619567871,0.0932827889919281,0.03509746119379997,-0.028513025492429733,-0.10564864426851273,-0.1476050168275833,-0.12415318191051483,-0.0695519968867302,-0.0353337787091732,-0.15511535108089447,-0.016738567501306534,0.07635412365198135,0.03622451797127724,0.1842089593410492,0.33141404390335083,0.6834139823913574,0.8371829390525818,0.40106552839279175,0.38251522183418274,0.4185194969177246,0.5691641569137573,0.8670234680175781,0.9521278142929077,0.058634962886571884,-0.18721969425678253,-0.0652322992682457,0.0332363098859787,-0.034956637769937515,0.07489407807588577,0.1549045890569687,0.08816896378993988,0.095939040184021,0.06251036375761032,-0.04087407886981964,-0.021861981600522995,-0.03697469085454941,-0.10770948976278305,-0.09646604210138321,-0.011654208414256573,0.07205980271100998,0.026673870161175728,0.1758684515953064,0.2618376612663269,0.664128839969635,1.0061801671981812,-0.07442416995763779,0.4626697897911072,0.5265001058578491,0.7669999003410339,0.7465455532073975,0.022524984553456306,-0.32512250542640686,-0.16555437445640564,-0.0749564915895462,0.01785273104906082,-0.05986585095524788,0.08408577740192413,0.1279296576976776,0.0971277505159378,0.08482630550861359,-0.0320168137550354,-0.07071124762296677,-0.170196071267128,-0.15983614325523376,-0.0881989374756813,-0.055562086403369904,0.06206203252077103,0.08157788217067719,0.050618913024663925,0.15905457735061646,0.21198703348636627,0.7394421696662903,0.9849943518638611,0.4001167118549347,0.4024829566478729,0.43700268864631653,0.8494952917098999,0.4362548589706421,-0.019843747839331627,-0.24563869833946228,-0.0668167769908905,-0.03699830174446106,-0.12355628609657288,0.01917407475411892,0.07248185575008392,0.17926372587680817,0.00021148117957636714,0.052794743329286575,0.045171014964580536,0.057883888483047485,-0.04637473076581955,-0.06706885993480682,0.09447484463453293,0.10828544944524765,0.12209266424179077,0.04123396426439285,0.1386658102273941,0.16627845168113708,0.12068645656108856,0.5849609375,0.6389211416244507,0.3259640038013458,0.47607144713401794,0.7255973219871521,0.5759671330451965,0.2524886131286621,-0.10841730982065201,-0.027580905705690384,0.011897536925971508,-0.03960757330060005,-0.051469989120960236,-0.05995645001530647,0.02225998230278492,0.04098033159971237,-0.014134020544588566,-0.050183992832899094,-0.061036285012960434,-0.024300312623381615,-0.016251666471362114,0.04902701452374458,0.09414297342300415,0.03367161005735397,0.1098589301109314,0.06302370131015778,0.06856751441955566,0.04952985793352127,0.3560076653957367,0.7042895555496216,0.6382358074188232,-0.09288492053747177,0.4694163203239441,0.5099332928657532,0.21978607773780823,-0.01600808836519718,-0.06882664561271667,0.03374277800321579,0.02954588085412979,0.06517411768436432,0.013213913887739182,0.030569154769182205,0.01809258945286274,0.010768826119601727,-0.13518723845481873,-0.0418565534055233,0.033221349120140076,0.04170824587345123,-0.08394481986761093,0.04568891599774361,0.017075730487704277,-0.07976630330085754,0.014373025856912136,0.022822190076112747,-0.037067871540784836,-0.08368797600269318,0.44466233253479004,0.6047465205192566,0.504881739616394,0.34674713015556335,0.3208509683609009,0.4328337013721466,0.024870004504919052,-0.04451500251889229,0.06490179896354675,0.10497639328241348,0.11775597184896469,0.09641977399587631,-0.008275526575744152,0.012540397234261036,-0.12559914588928223,-0.032882265746593475,-0.026663046330213547,0.06498850882053375,0.15893670916557312,0.055216655135154724,0.01671685092151165,0.07630356401205063,0.10815498232841492,-0.03978376463055611,0.001147502800449729,-0.06901122629642487,-0.22102057933807373,0.012228699401021004,0.7307968139648438,0.1796761304140091,0.31455937027931213,0.3896569609642029,0.19919990003108978,0.39849600195884705,0.05245700851082802,0.039665963500738144,0.09610186517238617,0.058235734701156616,0.14737272262573242,0.017839785665273666,-0.021796219050884247,-0.03919113799929619,-0.043833814561367035,-0.0974850282073021,-0.005401922389864922,0.08313711732625961,0.137556791305542,0.05606255680322647,0.0290213655680418,0.06145618483424187,0.01456101518124342,-0.02487523853778839,0.037825312465429306,-0.043357089161872864,-0.12239214777946472,0.11005296558141708,1.113060474395752,0.5762156248092651,0.3029201924800873,0.354084312915802,0.08132066577672958,0.3693455457687378,0.13005171716213226,0.06352934241294861,0.16653364896774292,0.1396642029285431,0.08698271214962006,-0.09373534470796585,-0.07301610708236694,-0.13994935154914856,-0.1527348905801773,-0.11420280486345291,-0.012137394398450851,0.020462602376937866,0.0025431327521800995,0.1090088039636612,-0.011526817455887794,0.03999968245625496,-0.02209816686809063,0.025802405551075935,-0.10645782202482224,0.04267914220690727,0.07944770902395248,0.0710504800081253,0.7866770029067993,0.3251597583293915,0.4794806241989136,0.3091806173324585,-0.052756231278181076,0.28403326869010925,0.12141212075948715,0.11743387579917908,0.31441834568977356,0.11361266672611237,-0.048338938504457474,-0.0615200512111187,-0.12179340422153473,-0.10605591535568237,-0.09666291624307632,0.035150449723005295,0.08476747572422028,-0.04245394468307495,0.06690941751003265,0.040886491537094116,-0.01817914843559265,0.0462663508951664,-0.02874251827597618,0.008273881860077381,-0.049349911510944366,0.07491496950387955,0.09405377507209778,0.1426822394132614,0.5056788325309753,0.5362284183502197,0.32664087414741516,0.3624381124973297,0.3396436274051666,0.23771898448467255,0.24512028694152832,0.0915415957570076,0.06838466227054596,-0.02001980133354664,-0.1343507617712021,-0.12532302737236023,-0.1373942643404007,-0.1761886477470398,-0.041626159101724625,0.09520930051803589,-0.05631982162594795,-0.07863455265760422,-0.0597735233604908,0.0155499167740345,0.012853752821683884,-0.03124316968023777,-0.019863706082105637,-0.015772446990013123,0.07663941383361816,0.0949472039937973,0.08578547090291977,0.17465032637119293,0.29717710614204407,0.4087827801704407,0.23313932120800018,0.3850279450416565,0.30277323722839355,0.2657853066921234,0.6811910271644592,0.11018485575914383,-0.25449302792549133,-0.20187954604625702,-0.1549406200647354,-0.12589095532894135,-0.13758529722690582,-0.05636946111917496,0.08061578869819641,-0.04947231709957123,-0.05805841460824013,-0.03572660684585571,-0.05829787254333496,0.06249801069498062,-0.05033358559012413,-0.01757398061454296,0.03855181857943535,0.08216104656457901,0.05932386964559555,0.062104787677526474,0.1555570363998413,-0.0944719910621643,0.3180641531944275,0.29277026653289795,0.26265838742256165,0.34200888872146606,0.3035469949245453,0.40421703457832336,0.7327696681022644,0.19749946892261505,-0.30967745184898376,-0.21633096039295197,-0.05996754392981529,-0.014719403348863125,0.05618827044963837,0.03623242676258087,0.06341990828514099,-0.022652162238955498,-0.028367750346660614,-0.10410375148057938,-0.10896801203489304,-0.04339031130075455,-0.005869427230209112,0.0402635857462883,0.10814205557107925,0.13852958381175995,0.2229372262954712,0.12919965386390686,0.10826210677623749,0.042314060032367706,0.32792001962661743,0.22832845151424408,0.44142812490463257,0.4578392505645752,0.4038771986961365,0.5367200374603271,0.5200781226158142,0.48669156432151794,0.07679199427366257,-0.02544410154223442,-0.010333845391869545,-0.027168212458491325,0.050029877573251724,0.032051581889390945,0.03393545001745224,0.06530527025461197,0.03637170419096947,0.030519960448145866,-0.0028424107003957033,-0.07133547961711884,0.039781585335731506,0.01714308001101017,0.08820831030607224,0.07581625133752823,0.0873381569981575,0.08941587805747986,0.18590888381004333,0.12295900285243988,0.2175937443971634,0.3908013701438904,0.23677198588848114,0.5102697014808655,0.28532302379608154,0.3344869613647461,0.3419260084629059,0.489421010017395,0.32710132002830505,0.04548057168722153,-0.08625815808773041,-0.015860091894865036,0.07652196288108826,-0.0660983994603157,0.043355751782655716,-0.00282087828963995,0.030219683423638344,-0.043847568333148956,-0.051822904497385025,-0.0573909729719162,-0.02049202471971512,0.01969187892973423,-0.03855665400624275,0.08867792040109634,0.12155640125274658,0.1691659390926361,0.0728449672460556,0.18449008464813232,0.3030777871608734,0.5977804660797119,0.24749834835529327,0.4570087492465973,0.04319053888320923,0.06438693404197693,0.10936474800109863,0.47351714968681335,0.3136011064052582,0.006713537964969873,0.015834590420126915,-0.012312818318605423,-0.05604827031493187,0.02557363361120224,0.06305215507745743,0.05264512449502945,-0.07906388491392136,-0.10744383186101913,-0.024681715294718742,-0.11202176660299301,0.016800830140709877,-0.023502109572291374,0.07012858986854553,0.08618529886007309,0.030188264325261116,0.11611946672201157,0.06665122509002686,0.22703596949577332,0.06949909776449203,0.1863996386528015,0.368864506483078,0.31019827723503113,0.13984785974025726,0.07913688570261002,0.29312804341316223,0.3429041802883148,0.2040378600358963,0.07793454080820084,0.014842487871646881,0.03450939804315567,0.006313680671155453,-0.05463425815105438,0.056676339358091354,-0.007470175623893738,-0.04837336763739586,0.09342405200004578,0.0009091346291825175,0.06662988662719727,-0.1031871885061264,-0.016927136108279228,0.10885588079690933,-0.09161380678415298,0.042285338044166565,-0.008237078785896301,-0.1927100419998169,-0.1595119684934616,0.00016435548604931682,-0.023977918550372124,-0.023153698071837425,0.26023492217063904,0.2601320147514343,0.091109998524189,0.27819162607192993,0.29231706261634827,0.24215255677700043,0.10597342997789383,0.0280027873814106,-0.044731732457876205,-0.031700652092695236,-0.002559997607022524,0.038342755287885666,-0.04777853935956955,0.006935442797839642,0.09005893766880035,0.08903816342353821,0.019780099391937256,0.0065332199446856976,0.016201771795749664,-0.001787750981748104,-0.08718322217464447,-0.1541576087474823,-0.23036763072013855,-0.3100602626800537,-0.3935811221599579,-0.028223272413015366,-0.1165911927819252,-0.08623704314231873,0.14253684878349304,0.2603698670864105,-0.043028391897678375,0.17912557721138,0.091803640127182,0.07758087664842606,0.04515849053859711,0.06705126166343689,0.13054579496383667,-0.09949810057878494,-0.0407804474234581,-0.04786905646324158,0.02637598291039467,0.008617408573627472,0.11718279868364334,0.025134768337011337,0.02678186260163784,0.07333526015281677,-0.012229413725435734,-0.1255013346672058,-0.1488959789276123,-0.1358695924282074,-0.1276535540819168,-0.2230319082736969,-0.283462792634964,-0.16491244733333588,-0.21335859596729279,-0.17672576010227203,0.17539915442466736,0.15505242347717285,-0.0696982592344284,0.1930006444454193,0.010690699331462383,0.0037576782051473856,-0.006122489459812641,-0.07063760608434677,0.13574711978435516,0.038267962634563446,-0.12967929244041443,0.13872557878494263,0.01252814382314682,0.04291927069425583,-0.05185450613498688,0.04583727940917015,0.08618392795324326,0.05586503818631172,0.11294730752706528,-0.04587625339627266,-0.0567837730050087,0.009607745334506035,-0.13832782208919525,-0.24177660048007965,-0.11308719217777252,-0.08344794809818268,0.029719209298491478,-0.038349710404872894,0.1576375514268875,0.03474543243646622,0.03097931109368801,-0.02018183097243309,0.05967825651168823,0.14301235973834991,-0.00684419646859169,0.16327625513076782,0.08843053877353668,0.052214909344911575,0.20854157209396362,0.05376831442117691,0.061414387077093124,-0.05615900456905365,0.036403778940439224,0.08316771686077118,0.12525679171085358,0.18407654762268066,0.1607028841972351,0.09065832942724228,-0.03304484114050865,0.10595259070396423,0.16235007345676422,0.1103273332118988,-0.03313099965453148,0.17880292236804962,0.056326061487197876,-0.11314079910516739,0.135374516248703,-0.04341927170753479,0.08815226703882217,0.11746959388256073,0.10037797689437866,0.2167680263519287,0.14268378913402557,0.05081532523036003,0.2111341506242752,0.0976749137043953,0.054457083344459534,0.10710381716489792,0.027443276718258858,0.12403272837400436,0.09163153171539307,0.18215517699718475,0.12680713832378387,0.10280708968639374,0.14144845306873322,0.18691837787628174,0.19053369760513306,-0.037351757287979126,0.0027371407486498356,0.04967799410223961,0.1839856058359146,0.17766359448432922,0.0133039066568017,0.02790183201432228,0.1093858852982521,-0.118698351085186,-0.006466176360845566,0.16232724487781525,0.10633809119462967,0.01378118246793747,0.09504944086074829,-0.06114064157009125,-0.01531193032860756,0.1380903720855713,0.21909940242767334,0.1808800995349884,0.28760477900505066,0.2460469901561737,0.3343793451786041,0.09082397818565369,0.323235422372818,0.08903376758098602,0.026114169508218765,0.05401911959052086,0.06396141648292542,-0.06502830237150192,-0.0627487301826477,0.18598470091819763,0.22056658565998077,-0.06178580969572067,-0.05974829941987991,0.013390980660915375}
